436 100
plane 0.1138 0.66835 1.0525 -0.71307 0.36587 0.64264 0.10027 0.30956 -0.26309 -0.071786 -0.44732 0.46585 0.14275 0.43232 -0.54162 0.87005 0.44148 -0.41346 -0.0083243 -0.16779 0.79798 -0.11861 -0.30152 -0.30904 0.16279 -0.4262 -0.29752 0.1935 -0.24902 0.29197 -0.073437 -0.2197 -0.058452 -0.96717 -0.38324 -0.67068 0.36712 0.56764 -0.43062 0.60626 -0.15329 0.53518 0.58582 -0.23365 0.17843 -0.031197 0.14049 0.23487 0.93803 -0.069754 0.0091291 -0.44177 -0.1494 0.57604 0.074737 -0.025803 0.20529 -0.041252 0.082222 0.49725 0.20697 -0.1463 0.63241 -0.19717 0.54866 -0.28129 -0.09764 -0.44257 -0.48564 0.086077 0.53381 0.55854 0.51003 0.46299 0.43243 0.14907 0.11352 0.64138 0.69639 0.14601 0.38193 0.055947 -0.52919 -0.13591 -0.62365 -0.73789 0.058455 0.53222 -0.35636 0.035446 0.15951 -0.3349 1.0179 0.21549 0.57727 0.1104 -0.6989 0.62361 0.1842 0.010184
stupid -0.7212 0.6973 0.10007 -0.52652 0.37931 0.17034 0.082671 -0.034638 -0.29245 0.50132 -0.24276 -0.29196 0.02275 -0.70847 -0.44407 0.52002 0.55099 -0.30707 -0.55623 -0.29205 -0.66805 -0.4368 -0.13645 0.16924 -0.19854 -0.41811 0.90336 -0.14299 -0.24872 0.87933 0.0041055 0.50904 -0.54509 0.067268 -0.8822 -0.14089 -0.70784 -0.37443 -0.87099 -0.20063 -0.3546 0.40733 0.2367 -0.25332 -0.74462 -0.26168 0.44802 0.43023 0.84036 0.11469 0.12369 0.049375 -0.42038 0.75174 0.67604 0.026759 -0.033019 0.19028 -0.22128 -0.025763 -0.16198 -0.10303 0.25731 -0.22048 0.5765 -0.72234 -0.54112 0.065602 -0.40963 -0.38803 0.64406 0.20886 -0.057623 -0.43294 0.065721 -0.32177 -0.24971 0.57102 0.52886 0.19116 0.5018 0.55372 -0.65418 -0.062319 -0.14639 -0.12481 -0.15327 0.18153 0.25514 0.074448 0.3954 0.11418 0.22785 0.059669 -0.087367 -0.20383 -0.12634 0.28572 0.12492 -0.44547
egg 0.15338 0.21201 0.4399 -0.33074 0.63638 0.85868 -0.35855 -0.11603 -0.26449 0.78856 -0.441 0.15368 0.33844 -0.085828 0.39592 -0.03258 0.13446 -0.48871 -0.48533 -0.4142 -0.020445 -0.46071 0.91039 0.55557 -0.002226 -0.58715 1.2566 -0.22128 0.040269 0.065024 0.12888 0.59399 -0.39999 0.52342 -0.17053 -0.29458 -0.47496 0.057652 -0.37728 0.047899 -0.3879 -0.13148 0.68077 0.043678 -0.88659 -0.13512 0.11283 0.24839 1.5745 -0.50761 -0.90881 -0.20816 -0.30333 -0.4248 -0.0092547 0.11463 -0.11718 -0.25523 0.68043 -0.25497 -0.31103 -0.97578 0.8676 0.40951 1.2531 -0.17098 0.18436 -0.52788 -0.49827 -0.10478 0.62371 0.24434 -0.15001 0.29616 -0.098903 0.066271 0.76228 0.53992 0.041378 0.46076 -0.29148 0.36919 -0.73261 0.16344 0.26767 -0.24645 -0.33035 -0.058314 0.62886 0.67986 0.08051 -0.15579 -0.10831 0.49928 0.57138 0.12607 -0.25647 -0.020144 0.038141 -0.0020298
year -0.14843 0.31327 0.7905 -0.13854 0.67332 -0.26677 -0.21 -0.46124 -0.28329 0.6857 -0.54514 0.12251 -0.33107 -0.081314 -0.24634 0.060487 0.31206 -0.020121 -0.043265 -0.05578 -0.16375 -0.10604 0.027568 0.19788 0.664 -0.66415 0.89057 0.022234 0.14703 0.041862 -0.28502 0.67882 -0.66024 -0.47453 -0.22342 -0.029815 0.33198 -0.17203 -0.29718 -0.13132 -0.59502 0.48199 0.1837 0.086516 0.56711 -0.34235 0.047992 0.45647 0.40292 0.12679 0.26463 -0.81886 0.29779 0.36263 -0.32232 0.40544 0.16837 -0.5417 0.24619 0.79345 0.046219 0.16219 0.83022 0.20791 0.53625 0.12283 -0.19409 -0.3023 0.082447 0.10416 0.26617 -0.37195 -0.30158 -0.042105 -0.011489 0.20417 -0.037602 -0.080765 -0.083177 0.24515 0.47757 0.29322 0.079238 0.076198 -0.27394 0.19759 -0.16518 0.25934 -0.014901 0.13863 -0.36471 0.084363 -0.084934 0.28235 0.19756 -0.43819 -0.12055 0.18955 0.45175 -0.12647
psychiatry -0.21399 -0.43702 -0.098379 0.10458 0.88984 -0.025648 0.38311 0.48446 -0.36184 -0.34121 -0.63151 -0.60893 0.19521 -0.49371 0.37934 -0.051346 0.22802 -0.59829 -0.39531 -0.30881 -0.27279 -0.19692 0.90268 -0.26812 0.087601 -0.4011 0.86501 0.083791 -0.19032 0.052169 -0.36151 0.038167 0.30165 -0.41784 -0.8492 0.14402 0.40012 0.70101 -0.39383 -0.37 -0.53662 0.2006 0.16122 0.52752 -0.10365 -0.15104 -0.093428 0.23238 0.83886 0.88733 0.56942 -0.53942 -0.47218 0.49414 0.22751 -0.074867 0.44086 -0.71753 -0.17381 0.22085 -0.48184 0.18149 0.5996 -0.049795 0.71204 -1.0739 0.43718 -0.49458 -0.3777 -0.1691 0.7918 0.39779 0.69283 -0.13551 -0.07601 -0.75092 0.43528 -0.23362 0.78401 0.27758 -0.057287 -0.16527 -0.10447 0.56865 0.43323 -0.99487 -0.13635 0.25092 -0.095703 0.31059 -0.91524 -0.50679 0.54151 0.59127 0.18961 -0.16717 -0.1966 0.094222 -0.69997 -0.54149
asylum 0.082526 0.5515 1.2941 -0.32399 0.56021 -0.16918 0.094074 -0.71285 -1.3249 -0.82821 -0.62979 -0.49222 0.45972 -0.56997 -0.1428 1.3772 0.62719 -0.39971 -0.78402 0.11626 0.033486 -0.42425 -0.016293 0.23025 0.17335 -0.34939 0.77135 0.12595 0.2847 0.76077 -0.50319 0.33163 -0.12828 -0.49951 -0.36836 -0.2533 -0.25576 0.74421 -0.096017 -0.12924 -0.37183 0.25811 0.51537 0.66418 0.11222 -0.34258 0.081739 0.48587 0.94049 0.21474 0.20409 -0.89301 -0.63394 0.37451 -0.084274 -0.51984 0.16653 0.30661 -0.3094 -0.3352 0.43363 0.15153 0.55967 0.31823 0.27573 -0.31286 -0.31104 -0.36561 0.30912 -0.42258 0.22631 0.793 0.87654 -0.19796 0.49362 -0.62589 0.43264 -0.24762 0.049909 0.64443 -0.50333 -0.14866 0.015799 0.91646 -0.18846 0.20439 -0.27993 0.75684 0.21111 -0.21294 -0.6303 -0.31209 0.80638 0.35455 0.49074 -0.22625 -0.27507 -0.17707 -0.083774 -0.23736
manslaughter -0.27385 -0.3058 1.2175 -0.52753 -0.071357 0.0725 -0.0063772 -0.1779 -0.38024 -0.14641 -0.37001 -0.10571 -0.19899 -0.32395 -0.33704 -0.19815 0.67787 -1.0074 -0.74315 -0.60285 0.64622 -0.16648 0.67012 -0.096898 0.035989 -0.71369 1.0202 -0.049104 -0.40668 0.40828 -0.17554 0.41501 -0.035089 -0.3821 -1.3729 -0.077261 -0.028151 -0.27308 -0.73454 -0.18415 -0.84724 0.39285 -0.42768 0.5741 0.48639 -0.47219 0.26882 0.54302 0.59398 0.21375 -0.31843 -0.12659 -0.26889 0.20065 0.24832 -0.35678 -0.35677 -0.83379 -0.51017 0.029253 -0.23552 -0.18725 0.44183 0.6208 0.62168 -1.0322 0.46911 -0.049043 -0.30073 0.26738 -0.63191 0.4698 0.12987 0.4285 0.45178 -0.25269 0.286 0.0042837 0.24807 0.80886 0.18861 -0.55092 -0.18034 0.10218 -0.30316 -0.62299 -0.027522 -0.060057 -0.088328 0.60183 -0.57763 -0.65998 0.24599 -0.13974 0.71398 -0.25442 -0.66517 0.45991 -0.39197 -0.56072
music 0.26939 0.10712 -0.050267 0.15523 0.75321 0.6073 -0.21024 0.73522 -0.28942 0.46786 0.14101 -0.58555 -0.001864 -0.15812 -0.53158 -0.030193 -0.084608 -0.65202 0.39127 -0.12337 0.22831 0.26802 0.15688 0.089158 -0.012946 -0.29503 0.71259 -0.19157 0.14472 0.47968 -0.42569 0.098086 0.069956 -0.23118 -0.6948 -0.68813 -0.40075 0.20618 -0.65769 -0.034264 -0.80437 0.42924 -0.2869 -0.097622 0.20881 -0.3617 0.18625 0.71221 0.5295 0.70686 0.48799 -0.31439 -0.37385 0.19501 -0.24751 0.13552 0.2716 -0.94096 0.37666 0.1484 0.031389 0.12092 0.91585 -0.016791 0.19122 -0.361 -0.10394 -0.60584 0.010519 -0.99827 0.11711 -0.35533 0.60771 0.03291 0.59807 0.11373 -0.25341 0.5205 -0.063408 0.22636 -0.067504 -0.43136 -0.78901 0.1693 0.77048 -0.23516 0.27522 -0.21779 0.37615 0.52838 0.15027 -0.095153 1.0165 0.068685 -0.18154 0.35792 0.27294 -6.973E-4 0.31245 -0.30456
record -0.082692 0.92138 0.38445 -0.76369 -0.14344 -0.14733 -0.047453 0.20892 -0.6793 0.81914 0.2963 0.076916 -0.19945 -0.22379 -0.071119 0.7078 -0.057089 -0.20822 0.69896 -0.4039 -0.23705 0.40637 0.27034 -0.053139 0.24449 -0.56955 0.76738 0.24462 0.29416 -0.01859 -0.17529 0.92106 -0.61946 -0.68947 -0.2285 0.59427 0.17606 0.14011 -0.19527 -0.35622 -0.19064 0.26808 0.14773 0.58498 0.61319 -0.30739 0.45828 0.21957 0.81116 0.11325 -0.30144 -0.45394 0.22643 0.24131 -0.50948 -0.15047 -0.29944 -0.86544 0.12032 0.035124 -0.14513 -0.064609 0.48077 0.24189 0.26281 -0.27754 -0.17352 -0.59682 0.48703 -0.31792 0.47095 -0.40522 0.43738 -0.088129 -0.11198 0.69837 -0.466 0.089149 0.28391 0.087895 0.37022 -0.18362 -0.40999 0.52202 0.0097329 0.25763 0.48058 -0.01019 -0.31923 0.057548 0.04854 -0.020354 0.10247 0.26515 -0.058526 -0.1507 -0.24526 0.62871 0.58405 -0.33523
energy 0.051603 0.52083 0.62651 0.56967 0.39316 0.43015 -0.062099 0.22667 -0.28451 0.31994 0.21603 0.14519 -0.67832 -0.20789 0.098685 0.60479 -0.44422 0.066699 -0.37097 -0.18504 0.58993 -0.40964 -0.18726 -0.56883 -0.041933 -0.022997 0.6663 -0.51013 -0.48844 0.41665 0.10451 0.74182 0.47704 -0.43371 -0.18137 0.23765 0.38921 0.064249 -0.75342 -0.042499 -0.48585 -0.018447 0.5691 -0.12855 0.40507 -0.099311 0.55525 0.61156 0.89921 0.34104 -0.2975 -0.55276 -0.56906 0.27642 -0.38675 0.1896 -0.36017 -0.26936 0.31146 0.1301 0.20011 -0.67704 0.93226 0.033917 0.27567 -0.26801 -0.12107 -0.30851 0.18541 -0.59116 0.78336 -0.35185 0.16373 -0.73097 0.38057 -0.10102 -0.11434 0.117 0.11213 0.076982 0.6111 -0.52514 -0.34057 -0.4385 0.17553 -0.59427 -0.60398 0.23449 0.44097 1.1698 0.2807 -0.0091123 0.22703 0.74381 0.29661 -0.48989 -0.1238 -0.29287 -0.053482 -0.26689
announcement 0.41093 0.34034 0.7666 0.15351 0.27275 -0.10464 0.46953 0.067937 -0.60549 0.55755 -0.81991 0.073419 -0.74989 -0.19326 -0.60114 0.71261 0.36918 -0.51589 -0.36964 -0.1578 0.19695 0.010883 -0.41028 -0.45164 -0.2728 -0.21709 0.57812 0.033958 0.0066576 0.21017 0.22989 0.10625 -0.47611 -0.5197 -0.35084 0.036132 -0.10371 -0.0015707 -0.27677 -0.050759 -0.10986 0.21341 0.066112 -0.033311 0.19486 -0.4627 0.40556 0.25542 0.075919 0.16892 0.23855 -0.60297 -0.089517 0.29166 0.13519 -0.15427 0.18498 -0.23675 0.098363 0.71881 -0.17727 0.52395 1.6089 0.050629 0.10482 -0.27926 0.12538 -0.23145 0.068863 0.24618 0.57941 -0.065228 -0.29712 -0.12093 -0.2247 -0.081068 -0.10173 0.37963 0.36396 0.30246 0.072095 -0.18824 0.071005 -0.27205 0.052358 0.14115 0.02951 -0.26105 -0.64018 1.0734 0.05415 0.049755 0.023532 -0.40378 0.43475 0.37487 -0.12284 0.028698 0.33723 -0.052159
mile -0.37986 0.5779 0.76299 -0.28312 -0.29253 0.31414 -0.19084 0.49411 0.32313 -0.073161 -0.10665 0.38314 0.06425 -0.11266 0.061246 0.53852 0.29246 -0.56924 0.11363 -0.43836 -0.19738 -0.56693 -0.11796 -0.40772 0.86775 -0.56397 0.44004 0.50896 -0.092369 0.28846 -0.40401 0.34402 -0.56007 0.10387 -0.30629 0.10905 -0.11399 -0.397 -0.10298 -0.03079 0.071618 0.70939 0.27775 -0.32063 0.71143 -1.3958 -0.1078 0.6232 0.5405 -0.027746 -0.10019 -0.89683 -0.28979 -0.39174 -0.089876 0.065048 -0.038854 -0.38543 0.73518 0.97314 0.53645 0.11618 0.38419 -0.34947 0.42795 0.45896 -0.42121 -0.47138 0.35309 0.13019 0.27807 0.017031 0.26799 -0.30592 0.022352 -0.27587 0.6217 0.1916 0.29863 0.32547 0.43067 0.068122 -0.11667 -0.10993 0.15139 -0.33374 -0.082556 0.018481 0.087769 0.017697 0.42124 -0.17205 0.23234 0.15709 0.59617 -0.38583 -1.3867 0.38486 0.016827 -0.73447
airport 0.50633 0.59597 1.0299 -0.075507 0.45621 0.1631 -0.1137 0.015977 -0.010855 -0.4157 -0.26479 0.34784 0.22077 0.63699 -0.59488 1.1376 0.51641 -0.45244 -0.059888 0.69442 0.96159 -0.46975 -0.20633 -0.32221 0.27524 -0.42266 0.079034 -0.052151 -0.47221 0.45922 -0.34879 0.090524 -0.06703 -0.72507 0.10386 -0.47627 -0.056958 0.37829 -0.62931 0.4453 -0.50306 0.94518 0.61465 -0.1931 0.54213 -0.58165 0.53308 -0.12782 0.70029 0.14246 0.23059 -0.42241 -0.34368 0.053348 0.018141 0.083214 -0.05173 0.060808 -0.31174 0.58775 -0.017502 -0.01425 0.52945 -0.22301 0.64839 -0.91289 -0.02567 -0.26458 0.19023 0.3212 0.57159 0.29222 0.30707 0.50699 0.39009 -0.78634 0.36795 0.84532 0.41709 0.20674 -0.2346 0.07542 -0.38196 0.14133 -0.1736 -0.39908 -0.21189 0.39965 -0.22142 -0.11853 0.2055 -0.31894 1.0453 0.16929 0.1584 -0.0030573 -0.77213 0.29562 0.10338 -0.11932
population -0.29386 0.76866 1.0466 -0.053957 0.85677 -0.35149 -0.6048 0.26738 -0.4374 -0.49202 -0.38924 -0.085008 0.12119 -0.57666 0.37404 0.39781 0.75043 -0.1466 -0.5177 0.37513 -0.20764 0.58651 -0.19712 -0.12456 0.78364 -0.24962 0.92658 -0.050888 -0.34051 0.54387 0.036371 0.53952 -0.63249 -0.38972 -0.079354 -0.4265 0.35727 0.054285 -0.59876 -0.1106 -0.31158 0.18577 0.64602 0.055718 -0.13534 0.067936 -0.10352 0.22936 1.047 -0.10353 0.03349 -0.13357 -0.44366 -0.0958 -0.60732 -0.28276 0.50438 -0.32836 0.28663 -0.12705 -0.38882 -0.33666 0.48911 -0.081792 0.043484 0.052744 -0.36483 -1.0217 0.1512 0.19371 0.13478 0.018652 0.34243 -0.62191 -0.3288 -0.29452 0.80103 0.14502 0.067871 0.77221 0.31771 0.13774 -0.22613 -0.078648 -0.11445 -0.3672 0.15 0.29973 -0.16355 0.29158 -0.48755 -0.32534 0.48777 0.64854 -0.12903 -0.21106 -0.87717 -0.24677 0.47859 -0.48194
planning 0.046312 0.32687 0.65018 -0.043153 0.48477 0.42898 0.52553 0.037739 -0.12091 0.37986 -0.51268 0.20283 -0.65059 -0.067958 -0.30329 0.59712 0.30552 -0.61278 -0.057982 0.036318 0.091847 -0.20481 -0.34324 0.050175 0.092326 -0.57671 0.4171 0.36317 -0.64534 0.80373 0.21544 0.34328 -0.10044 -0.6256 -0.15964 0.47026 0.049735 0.18151 -0.53577 -0.073971 -0.6074 0.36919 0.52514 0.4422 0.26085 -0.27621 0.10393 0.010217 0.29981 0.23782 0.29764 -0.55606 -0.38477 0.44888 0.26942 0.28167 -0.39468 -0.38463 0.30594 -0.048066 -0.32164 0.37249 0.82592 -0.18247 -0.013319 -0.17428 0.3646 -0.58323 -0.2438 0.13047 -0.028369 -0.049785 0.03922 -0.2002 0.32966 -0.011297 0.18289 0.34273 0.10548 0.22348 0.2244 -0.16617 0.13637 0.50379 0.22241 -0.11587 -0.39325 -0.093495 -0.037845 0.20987 -0.17943 0.087107 0.50363 0.070613 0.13058 0.10225 -0.0092853 -0.046704 -0.45954 -0.31733
canyon -0.20101 0.37426 0.36475 -0.44284 -0.23157 0.33411 -0.36026 0.69806 -0.089845 -0.31603 0.22774 0.78769 -0.23293 0.15878 -0.21776 -0.078708 0.36756 -0.52475 0.36837 -0.7458 0.085327 0.27416 -0.29853 -0.62922 -0.062122 0.096737 0.62323 0.020378 0.006538 0.023315 -0.22132 0.49983 -0.32782 -0.33027 -0.50153 0.066239 -0.69309 -0.45172 -0.4699 0.27234 -0.053958 0.62931 0.46007 -0.31566 0.36064 -0.25341 -0.057375 0.43641 0.82547 0.28662 0.085766 -0.51958 -0.40697 -0.62275 -0.025043 0.11658 -0.17264 -0.3627 1.035 0.5965 0.33434 -0.75619 0.2997 -0.18578 0.64791 0.074798 0.59139 -1.1019 0.11823 -0.34739 0.64884 -0.40313 0.66128 -0.10788 0.19524 -0.5073 0.49739 0.85647 0.43517 0.68421 0.19828 0.013868 -0.56185 0.35954 0.1162 -0.29768 -0.010197 0.4596 0.16933 -0.13475 -0.043911 -0.35805 0.55246 -0.13998 0.65451 -0.38818 -0.47361 0.14643 0.39122 -0.3222
delay 0.50476 0.8704 0.607 -0.45535 0.12747 0.012795 0.59819 0.022689 -0.29029 0.59607 -0.74452 -0.40376 -0.48881 -0.84885 -0.22541 0.61063 0.34983 -0.44974 -0.14025 -0.38293 0.8329 -0.43903 -0.091409 -0.45437 0.2411 -0.68148 0.20499 0.041449 -0.38203 0.59453 0.031167 0.59159 -0.068306 -0.1857 -0.40781 0.11819 -0.22647 0.14623 -0.22572 0.19788 0.041196 0.25679 0.49744 0.3964 -0.13934 -0.27328 0.22806 0.57438 -0.18723 0.30895 0.10091 -0.45416 -0.25843 0.48659 0.1724 -0.025724 -0.43424 -0.54779 -0.07735 0.05021 -0.11518 0.022207 1.0313 0.53276 0.24157 -0.18078 0.3524 -0.34285 -0.28735 0.35811 0.25757 0.37878 -0.034753 -0.33034 -0.12034 -0.27063 0.13069 0.18282 0.21586 0.11866 -0.072662 -0.44301 0.071858 -0.039124 -0.0014764 -0.027798 -0.27574 0.083943 -0.37676 0.30558 0.11424 0.10666 0.30517 0.42105 0.52167 -0.2561 -0.15458 0.44414 0.64496 -0.053551
size -0.29197 0.031252 0.9473 -0.66114 0.46865 0.41399 -0.49963 0.20972 -0.34426 0.35024 -0.17792 0.35817 0.066751 0.1678 0.26793 0.38185 0.66652 -0.062373 0.40649 -0.12891 0.095335 0.14749 -0.051121 -0.22559 0.14388 -0.75106 0.59972 0.033192 -0.39039 0.62502 0.25412 0.45982 -0.18444 -0.2999 -0.4452 -0.70002 0.13082 0.011525 -0.49358 0.046948 -0.091631 0.422 0.42368 0.20441 -0.12134 0.16171 -0.61581 0.18421 0.86241 -0.26918 0.087749 0.21964 -0.51992 -0.026344 -0.49258 0.14122 0.14973 0.034966 0.4292 0.35738 -0.16404 -0.29037 0.69792 -0.11987 -0.078734 -0.074339 0.12139 -0.74257 -0.19546 0.19617 0.51027 0.095605 -0.37187 -0.56774 -0.43559 0.005237 -0.0023198 0.29861 0.52057 0.98825 0.070141 0.084879 0.058686 0.068487 -0.086139 0.029831 -0.40113 -0.2337 0.032653 0.47073 0.47791 0.015285 -0.0084423 0.9136 -0.015281 -0.30135 -0.52703 0.10932 0.50365 -0.062123
peace 0.39226 0.24694 0.39923 -0.54924 0.8011 0.1217 0.084384 0.10767 -0.73751 0.12468 -0.96898 0.070951 0.29176 0.14441 0.35754 0.084935 0.16009 -0.59711 -0.5134 -0.21972 0.33914 0.365 -0.18397 0.47646 0.50253 0.075493 1.0069 -0.68415 -0.16014 0.62109 -0.78289 0.53226 0.25062 -1.231 -0.39769 0.80112 -0.67262 0.27383 -1.234 -0.36877 -0.40016 -0.28 0.70647 -0.68475 0.019156 -0.55 0.62813 0.40558 0.20743 0.42308 0.12704 -0.74766 -0.0084965 -0.54919 0.2517 -1.0656 0.43066 -0.23155 0.526 -0.24298 0.064439 0.21326 0.93931 0.33162 0.021402 0.091364 -0.10259 0.070097 0.041355 -0.32363 0.65076 0.21612 -0.031114 -0.19701 0.94036 -0.4216 -0.28611 0.95865 0.12435 0.80092 0.57128 -0.28123 -0.71694 1.0245 0.061179 0.14635 -0.28064 0.33817 0.41008 0.50304 -0.084098 -0.071073 0.1892 -0.29053 0.36149 -0.030814 -0.28731 0.1364 0.24823 -0.60135
science -0.42068 0.37283 0.047838 0.52084 0.92292 0.053082 0.47064 -0.0031799 -0.3243 0.20338 0.072484 -0.11313 -0.18531 -0.057154 0.22269 -0.17263 0.028599 -0.36762 -0.092755 -0.72475 0.22666 0.13803 0.48188 0.23253 0.4257 -0.38601 0.69605 -0.18521 -0.27426 0.35327 -0.56099 0.11365 -0.093049 -0.17619 -0.5179 -0.059161 0.30258 0.67272 -0.60145 -0.083025 -0.0027949 0.39708 0.28777 -0.20609 -0.26509 -0.095101 0.4644 0.43774 1.0389 0.6886 -0.0021292 -0.51678 -0.66454 0.95412 0.28879 0.18234 0.076707 0.040408 0.2142 0.1516 -0.24637 0.1779 0.66407 0.0040531 0.55263 -0.27103 -0.022087 -0.5335 -0.20478 -0.92127 1.1464 0.37078 0.069879 -0.26959 -0.10867 -0.037805 0.24058 0.51241 0.44744 0.30351 0.3355 -0.72172 0.1207 0.41653 0.40573 -0.5566 -0.070229 -0.10026 0.40219 0.42468 -0.5475 0.019379 0.19592 0.93605 0.3293 -0.1965 -0.062059 -0.43406 -0.25181 -0.50795
dawn -0.22358 0.42933 1.0029 -0.18153 0.60243 0.18477 0.33272 0.15221 -0.062736 -0.10245 -0.50715 0.3092 -0.54148 0.47032 0.19057 0.29775 1.1285 -0.78269 0.18814 -0.20365 -0.18483 -0.092456 -0.11927 -0.038359 0.22125 -0.10946 0.14072 -0.16684 -0.27552 0.040656 0.17571 0.76456 -0.10283 -0.27417 -0.41451 0.14138 -0.30631 0.083112 0.01106 0.0906 -0.25784 0.45754 0.045881 -0.21873 0.053185 -0.87766 0.13478 0.51824 0.67227 -0.23036 -0.10076 -0.27057 0.089836 0.2371 0.29564 -0.015522 0.43338 -0.30595 0.13991 0.70451 -0.017308 -0.47424 0.75762 -0.07165 0.53168 -0.33479 0.097974 0.04793 0.065783 -0.27314 0.39763 0.098573 0.7041 -0.56617 0.68871 -0.31987 0.38496 0.68417 -0.27732 0.5351 -0.13309 -0.14372 -0.82004 0.17849 -0.28976 -0.19563 -0.25294 -0.27175 0.1152 0.12086 0.44054 0.065698 0.83045 -0.33284 0.67249 -0.058114 -0.20201 0.23764 0.083539 -0.016976
brother -0.1661 -0.20976 0.6609 -0.45185 0.61445 -0.071652 -0.24803 0.32772 -0.48414 -0.17848 0.16698 -0.12298 -0.026516 0.091224 -0.49173 0.30492 0.12335 -0.60196 -0.61783 -0.029805 0.10878 0.19587 -0.061674 -0.073115 -0.56719 -0.51702 0.36256 -0.2389 -0.19957 0.78662 0.30475 -0.13122 -0.066722 0.050242 -0.4905 0.68227 0.049396 0.55735 -0.5297 -0.46282 -0.81855 0.45252 -0.15813 -0.017719 0.27335 0.073787 -0.23524 0.77536 0.4903 0.509 0.43653 -0.61182 0.26241 0.75952 -0.21439 -0.56982 0.54866 -0.90373 0.1376 0.45912 -0.40924 -0.34176 0.4668 0.34964 0.64114 -0.069124 -0.029412 -0.3532 -0.11604 0.37335 -0.32355 0.34048 0.36015 0.23001 0.7771 -0.23426 -0.26267 0.034352 0.55576 -0.032626 0.075017 0.23228 -0.68671 -0.16382 -0.1049 0.048835 -0.36419 -0.4988 -0.15216 0.19396 0.34788 0.17559 0.54386 0.16139 0.83004 0.12747 -0.6042 0.57202 -0.042183 -0.19155
wine 0.87904 -0.19574 0.52291 -0.10676 0.62964 -0.17327 -0.5999 0.24261 -0.38734 0.59603 0.20827 0.21514 -0.034375 0.43899 -0.048167 0.077762 0.080002 0.15089 0.095418 -0.11977 0.37298 -0.51681 0.59832 0.12436 0.014483 -0.65763 1.1785 0.084596 0.046094 0.55423 0.33965 0.36922 -0.061313 0.024079 0.07349 -0.51853 -0.2574 -0.54038 -0.75153 -0.39958 -0.72035 0.27547 0.59643 0.22368 -0.30624 -0.37603 0.47022 0.31048 1.2934 0.36269 -0.18403 -0.14013 -0.43931 -0.47021 -0.0063134 0.14691 0.28628 -0.44136 0.74761 0.1152 0.070644 -0.52384 0.33993 -0.0063143 0.64716 -0.32131 0.36961 -0.2977 -0.071989 -0.62237 0.32741 -0.85566 0.88993 0.27707 0.082845 -0.46415 -0.13559 0.22054 0.18884 0.42002 0.066353 0.024538 -0.52717 -0.33244 0.33209 -0.47065 0.13153 0.16614 0.66896 0.61209 0.096785 -0.42023 0.65995 -0.061185 0.3057 0.020437 -0.41961 0.20772 0.35255 -0.082318
object -0.10731 0.42805 0.71115 -0.46911 0.098059 0.27159 -0.07523 0.34222 -1.0169 0.5124 -0.21758 0.26821 -0.54737 -0.4159 -0.59282 0.27148 0.11956 -0.24606 0.36318 -0.44032 0.092086 0.074064 0.21084 -0.17877 -0.17757 -0.23016 0.51188 0.30627 0.10114 0.31657 -0.27117 0.10935 0.071224 -0.27616 -0.53582 -0.023421 -0.30113 0.15178 -0.29593 -0.060018 0.21881 0.35526 0.17534 -0.35283 -0.55555 -0.21116 -0.30106 0.14151 0.45497 0.084971 0.19949 -0.26175 -0.52556 0.16868 -0.059863 0.23482 -0.2226 0.020154 0.49391 0.046014 0.30256 -0.32224 0.49675 0.10059 -0.019013 -0.51877 0.037053 -0.64846 -0.38399 -0.32941 0.49271 0.42577 0.079933 0.039127 0.37161 0.023281 0.25317 0.50757 0.36404 0.42056 0.2795 -0.12607 -0.49739 0.1725 -0.2691 -0.24894 -0.12221 0.056852 0.18136 0.31057 0.1354 0.18465 0.63387 0.08996 0.14578 -0.27489 -0.55939 -0.23923 0.081688 -0.43686
attitude -0.66336 -0.15425 0.10131 -0.25719 0.42384 -0.34642 0.1313 0.12497 -0.78148 0.174 -0.29907 -0.55766 0.02167 0.20778 -0.19247 0.71382 0.22982 -0.50208 0.01851 -0.21527 -0.035143 0.091042 0.094773 -0.43642 -0.55017 -0.30301 0.92565 -0.19629 0.097883 0.82944 -0.035811 0.5489 -0.16917 -0.24998 -0.087926 -0.12393 -0.13049 0.12056 -0.95562 -0.40194 -0.23249 0.144 0.03232 0.11177 -0.45707 -0.55289 0.27398 0.8497 0.39713 -0.0045098 0.59441 -0.14811 -0.13411 0.44871 0.35624 0.085244 0.11482 0.38469 0.12375 0.075179 -0.027544 -0.4363 0.93332 -0.16378 0.14652 -0.44265 -0.35015 -0.27363 -0.20564 -0.27179 0.18439 0.56417 -0.1368 -0.61372 -0.065986 -0.017749 0.59585 0.63271 0.83289 0.25391 0.071778 -0.14936 -0.43716 0.1986 -0.088533 -0.0050516 -0.14202 0.047173 -0.046331 0.20237 -0.18556 -0.029815 0.58223 0.15016 -0.085197 -0.029318 -0.29088 -0.05207 0.11479 -0.59616
treatment 0.19196 -0.23649 0.19283 -0.298 0.32013 0.0097463 0.099872 0.13353 -0.79954 0.014872 -0.89804 -0.35503 0.458 -0.63503 0.70699 0.76757 0.12822 0.032387 -0.94125 0.24305 0.55252 -0.26606 -0.085581 -0.56859 0.073183 -0.61635 0.45251 0.40895 -0.23508 0.21049 -0.25616 0.4661 -0.022128 -0.25884 -0.49966 0.19606 -0.072657 0.40022 -0.39925 -0.024514 -0.6731 0.18877 0.062601 0.78555 0.29481 -0.56475 0.23115 0.68926 0.33484 0.35509 0.22909 -0.34987 -0.44462 0.12581 0.40669 0.12478 -0.21599 -0.48905 0.040592 0.27392 -0.23139 -0.082302 0.40181 0.22029 0.25963 -0.52812 -0.2257 -0.59844 -0.2011 -0.32997 0.65987 0.094953 0.14211 -0.44211 -0.47015 -0.24741 0.97554 0.093193 0.28792 0.02964 -0.33917 0.5834 -0.11064 0.17538 -0.020304 -0.69108 -0.4041 0.30462 -0.028363 0.67113 -0.69568 -0.67384 0.12452 0.039408 0.63929 -0.07805 -0.25211 -0.078094 0.014536 -0.25411
flight 0.1733 0.32339 0.87873 -0.46051 0.30587 0.31299 0.23379 0.38794 0.1573 -0.13881 -0.85955 0.17193 0.42107 0.39994 -0.7153 0.71156 0.28384 -0.43469 0.25092 0.018703 0.98932 -0.34336 0.052828 -0.30403 0.66484 -0.8159 -0.072766 0.17095 -0.2196 0.28503 -0.23475 -0.1177 -0.11852 -0.63869 -0.061338 -0.7612 0.41662 0.55289 -0.59168 0.27602 -0.28395 0.5995 0.83644 0.18602 0.35202 -0.42793 0.50147 0.16777 0.78479 0.031042 0.1994 -0.26933 -0.19275 0.68356 -0.13981 0.12387 -0.070357 -0.041032 -0.10125 0.27557 -0.24274 -0.011594 0.62669 -0.30038 0.62586 -0.47651 -0.18525 -0.21452 -0.32952 0.14531 0.64732 0.73125 0.052096 0.47185 0.12916 0.23375 0.28425 0.76534 0.58378 0.44174 -0.27297 -0.35163 -0.11835 0.11133 -0.34653 -0.51421 0.11558 0.63646 -0.17972 -0.037655 0.056485 -0.084937 1.1121 0.13454 0.55841 0.24849 -0.68224 0.63124 0.17993 0.083089
forest -0.50712 0.83637 0.67374 -0.15367 0.205 0.43991 -0.76396 0.42691 -0.025186 -0.045615 0.18754 0.6533 -0.29179 0.10258 -0.20191 0.17667 0.37686 -0.28271 -0.49954 0.018349 0.093674 0.31239 0.044206 0.12576 0.15246 0.41487 0.79378 -0.49399 -0.34657 0.20322 -0.37386 0.4943 -0.087613 -0.56358 -0.54217 0.097597 -0.57092 -0.54811 -0.38395 -0.013591 -0.20308 -0.10355 0.54976 0.063917 0.32089 0.22482 0.20353 0.15293 1.0873 0.34786 -0.28581 -0.14182 -0.52349 -0.50019 -0.17634 0.069109 -0.28866 0.023155 0.91344 0.44408 -0.064944 -0.59114 0.70611 -0.066543 0.25448 0.086618 0.22065 -1.1101 0.29384 -0.31573 0.48858 -0.31864 0.47786 -0.68545 0.70269 -0.30581 0.76965 0.4933 0.089784 0.78949 0.17809 -0.12666 -0.21523 0.30248 0.098848 -0.31748 -0.27573 0.51532 0.39171 -0.10092 -0.0077879 -0.093747 0.80995 -0.074249 0.71385 -0.042409 -0.67069 -0.21259 0.11599 -0.22918
abuse -0.020114 -0.43701 0.42832 -0.61685 0.405 -0.058351 0.37705 0.16188 -0.56069 -0.045675 -0.01161 -0.063101 -0.14411 -1.2229 -0.060897 1.1783 0.78873 -0.88861 -0.84775 0.34642 0.22447 0.37787 0.57334 -0.11022 -0.82637 -0.65548 1.2706 0.013042 -0.2446 -0.0021107 -0.56666 0.70069 -0.21797 -0.070324 -0.94609 -0.23806 0.065962 0.38788 -0.40971 -0.071545 -0.42367 0.28686 -0.45895 0.4168 -0.22541 -0.6546 -0.23325 0.66995 0.5719 0.31017 0.83515 0.2871 -0.83199 0.15869 -0.24443 -0.21007 -0.14054 -0.59135 -0.21127 -0.31975 -0.0049453 -0.40801 0.55125 -0.17307 0.22623 -0.42543 8.8489E-4 0.091026 0.30469 -0.21839 0.032236 0.072732 0.26351 -0.3783 0.023816 -0.21054 0.30394 0.22056 0.13699 0.5842 0.42511 0.10707 -0.24173 0.021088 -0.022703 -0.57164 -0.15256 0.32839 -0.30302 0.24878 -0.60227 -0.3648 0.4227 0.34615 0.3184 -0.12634 -0.20096 0.24692 -0.33038 -0.19795
criterion -0.076067 0.25664 0.061575 -0.394 0.34152 0.030501 0.15961 -0.26233 -0.98103 0.44946 -0.62505 -0.090284 -0.18712 0.059196 -0.2668 0.3844 0.22645 -0.38121 -0.17639 0.0589 0.15498 -0.10027 0.12891 -0.1637 0.13167 -0.62197 0.80577 0.30767 -0.21047 0.57297 -0.092102 0.087305 0.23688 0.036673 -0.40639 -0.019628 0.38453 -0.025309 -0.96863 -0.39199 -0.46941 0.65205 0.23047 0.4332 -0.10661 0.041876 -0.03194 0.35421 0.41451 0.22869 -0.16444 -0.31225 -0.58577 0.37121 -0.44048 -0.09105 -0.19852 -0.24199 0.0755 0.5474 0.043744 -0.084958 0.58103 0.6002 -0.13105 -0.54441 0.029188 -0.3971 -0.19538 -0.28413 0.48665 0.46386 0.058663 -0.070027 -0.39379 -0.4083 0.20144 0.62595 0.49025 0.23661 -0.091611 -0.19842 0.0069529 0.26339 0.21467 0.060521 0.067082 -0.076559 0.12479 0.3609 -0.26177 0.18289 -0.21148 0.50548 0.19388 -0.37949 0.012352 -0.1586 -0.091617 -0.39587
sea -0.14248 0.39013 0.78572 -0.34231 0.14954 1.0054 -0.63128 0.30854 -0.26329 -0.15048 0.082083 0.57975 -0.13779 0.33477 0.041644 0.36307 0.17812 -0.55397 -0.012344 -0.90482 0.41202 -0.06418 0.2674 -0.38043 0.36553 -0.28888 0.57522 -0.41463 -0.24078 -0.0628 -0.22955 0.92461 -0.19571 -0.8335 -0.32266 -0.18841 -0.32319 -0.21101 -0.52255 0.29884 -0.11758 0.068172 0.5195 0.11517 0.045107 0.29008 0.39088 0.39131 1.0416 -0.18178 0.1083 -0.28111 -0.11285 -0.4012 -0.095861 0.064322 0.23154 -0.050908 0.81042 0.054145 0.085538 -0.088481 0.41706 -0.33205 0.52492 -0.23018 0.38243 -0.41492 -0.02202 -0.30232 0.5301 0.12096 1.0492 -0.22642 0.083041 0.040565 0.56416 0.62707 0.22317 0.84524 0.28221 0.075266 -0.3493 0.37179 -0.37984 -0.54893 -0.11925 0.68935 0.81799 0.021062 -0.057209 0.37434 0.92325 0.32302 0.80109 -0.078819 -0.45821 -0.024581 0.79065 0.15696
dollar -0.096194 -0.035747 0.77998 -0.37385 0.25596 -0.42119 -0.42018 -0.042584 -0.34013 1.0828 -0.49028 -0.0027078 0.16739 -0.30529 -0.058167 0.69929 0.3755 -0.060627 -0.57196 -0.49111 -0.16972 -0.5208 -0.072309 -0.83791 0.086299 0.098677 0.87984 -0.33239 -0.013509 0.38356 0.71471 0.91723 -0.49877 -0.71111 -0.159 0.063456 0.17547 0.63856 -1.0577 0.14084 0.25861 0.16057 0.25329 -0.24942 0.34069 -0.79791 0.41138 0.82324 1.1458 -0.23472 0.20626 -0.21673 -0.69961 0.078799 -1.0604 -0.056218 -0.22715 0.013356 0.16801 0.3872 -0.20735 -0.38073 1.1487 -0.20134 0.43273 -0.14662 -0.069825 -0.62535 -0.065352 -0.52529 0.71217 0.11476 1.0057 0.48038 -0.051566 0.51779 -0.31593 -0.47642 -0.48606 0.48614 0.099748 0.23986 0.094301 0.44395 -0.6062 0.014814 -0.65329 0.47737 -0.4201 0.49756 0.23859 0.13924 0.10276 0.33426 -0.56788 0.10861 0.21973 0.70605 0.22073 -0.19342
example -0.17571 -0.038899 0.3172 -0.33549 0.56347 -0.34146 -0.10577 0.27392 -0.5439 0.37784 0.033227 0.035598 -0.40457 -0.29251 -0.088121 0.47307 0.11779 0.0063688 -0.3211 -0.1068 -0.0098978 -0.21068 -0.57367 -0.22858 0.26957 -0.60103 0.55057 0.29802 0.062873 0.65002 0.061883 0.27866 -0.017675 -0.36645 -0.26735 -0.17363 0.029441 -0.2332 -0.36971 -0.36887 -0.27946 0.076861 0.30708 0.32929 -0.23143 -0.31143 0.15803 0.19666 0.35744 0.37015 0.25819 0.03296 -0.090257 0.19304 0.076929 0.48101 0.08092 -0.14598 0.34669 0.63414 0.12847 -0.14539 0.69513 0.32582 0.36244 -0.24378 -0.33467 -0.37018 -0.13016 0.071063 0.53234 -0.010628 0.075411 -0.15756 0.090516 -0.17406 0.0088273 0.053503 0.37956 0.36686 0.14546 0.12851 -0.018458 0.39327 0.22891 0.015333 0.12622 -0.11745 -0.060744 0.25 -0.096395 0.087729 0.24438 0.30573 0.52948 -0.090202 -0.20985 -0.19319 0.022068 -0.19409
journal -0.25106 0.34879 -0.014523 0.16011 0.81564 0.44531 0.1431 0.4501 -0.95168 0.22699 -0.90673 0.033749 -0.12464 -0.5016 -0.074787 -0.071983 0.29561 -0.28025 -0.57124 -0.49519 0.60944 0.10446 1.335 -0.32177 1.3533 0.080593 0.89159 -0.038229 0.10757 0.14415 0.53075 0.14629 0.3139 -0.12312 -0.74372 -0.33851 0.22987 0.079955 0.71822 -1.4025 -0.53399 0.020918 0.19738 -0.14646 0.090568 -0.43018 0.074603 0.2219 1.0341 0.67904 0.42041 -0.34504 -0.30658 0.6899 -0.17354 -0.38036 0.76424 0.028248 -0.33451 0.82173 -0.23282 0.27307 0.92401 -0.045826 0.60938 -0.47754 -0.034824 -0.30484 -0.96425 -0.65463 0.92894 -0.0069252 0.56722 0.21816 -0.34986 -0.49158 0.98591 0.14732 1.4044 0.334 0.15602 -0.41793 0.61129 0.76485 0.27042 -0.47708 0.19793 0.10171 0.1151 0.19027 -0.74161 -0.28694 -0.33859 0.20685 0.094502 -0.21958 0.067981 0.20748 0.0044618 0.020685
laundering 0.038105 -0.2221 1.0417 -0.65706 0.14494 0.34571 -0.11843 -0.163 -0.28113 0.53512 -0.11127 0.04799 -0.15246 -0.52852 -0.22235 0.84102 0.45118 -0.7533 -0.81102 0.31497 0.17379 0.42274 0.070238 0.13024 0.014313 -0.50607 1.2278 0.0098685 -0.47499 0.96271 0.26728 0.39076 0.11008 -0.3766 -0.21794 -0.14261 -0.33726 0.29097 -0.63396 -0.18742 -0.44166 0.29078 -0.43546 0.23676 0.38318 -0.66665 0.52931 0.3377 0.88023 0.54142 0.055663 0.20769 -0.60018 0.59778 0.13852 -0.20145 -0.66865 -0.033091 -0.13759 0.1936 0.0255 -0.06102 0.064094 0.031047 0.80068 -0.65489 -0.0073366 -0.24466 -0.062294 0.47549 0.37337 -0.3849 0.12183 0.18266 0.67436 -8.1236E-4 0.043821 -0.015383 -0.45982 0.63322 0.30074 -0.15876 0.0076514 0.6595 -0.10094 -0.41482 -0.55857 0.1861 0.36385 0.19138 -0.42253 -0.60779 -0.04236 0.28259 0.20968 -0.62779 0.078272 1.1311 -0.28943 0.13352
hotel 0.081813 -0.10932 0.77437 0.019852 0.11296 0.50457 0.039667 0.024223 -0.32028 -0.14109 -0.70498 0.63105 0.12335 0.36129 -0.11101 0.54459 0.56139 -0.12752 0.066445 0.34718 0.38194 -0.53046 -0.17373 -0.010031 -0.31285 -0.45616 0.39195 0.29984 -0.33999 0.21854 0.3377 0.15126 -0.015617 -0.29016 0.34031 -0.38593 0.032643 -0.36676 -0.51747 -0.13403 -0.93718 0.91273 0.4772 -0.18928 0.78038 -0.57105 0.24235 0.13546 0.49686 0.48309 0.18191 -0.49624 -0.37195 -0.22499 0.057655 0.1319 0.14024 -0.43885 0.57143 0.36295 0.117 -0.42314 0.41974 0.08029 0.60097 -1.0947 0.23998 -0.49944 0.22401 -0.28035 0.33106 -0.18619 0.28872 0.66051 0.24233 -0.34489 -0.0010658 0.10918 0.52972 0.49443 -0.22735 0.028029 -0.62937 0.46738 0.34863 -0.29874 -0.35164 0.72308 0.14283 -0.39886 0.38197 -0.0091873 0.79451 0.12676 0.29213 0.36024 -0.41188 0.18892 0.023387 -0.30973
term 0.19081 0.55836 0.67911 -0.44607 0.33896 -0.17771 -0.17353 0.11898 -0.63601 -0.068477 -0.97315 -0.066494 -0.03262 -0.70293 0.28029 -0.14645 -0.069143 0.47402 -0.42351 -0.14504 0.14582 -0.40532 -0.38237 -0.15555 0.54056 -0.40393 0.84935 0.60286 -0.49684 0.53788 -0.052342 0.54051 -0.30235 0.1169 0.058898 0.59326 0.2888 0.12487 -0.96866 -0.46025 -0.22916 0.2184 0.20838 0.24076 -0.18253 -0.34265 0.2207 0.73675 0.51835 -0.21397 0.1523 -0.12666 0.10952 0.25619 -0.50055 -0.37087 -0.59218 -0.67099 -0.21597 0.54093 0.16553 0.35692 1.1213 0.082803 0.37494 -0.32903 -0.04777 -0.064572 -0.033561 -0.19934 0.44196 -0.3145 -0.077063 -0.48756 -0.40288 -0.26597 -0.041813 0.19912 0.25254 0.96954 0.39521 -0.0060008 -0.11205 0.21978 -0.070397 0.19784 -0.27276 -0.044695 -0.10826 -0.34475 -0.30861 0.29242 0.20269 -0.32719 0.69482 -0.44484 -0.18265 0.50814 -0.36464 -0.4665
listing 0.12672 0.22863 0.49009 -0.45623 -0.33468 0.17055 -0.01169 0.23926 -0.78557 0.43241 -0.89868 0.46324 -0.11572 -0.12193 -0.32653 0.81883 0.065845 0.14173 -0.25549 -0.025468 0.17121 0.0020926 -0.14794 0.077681 0.18058 -0.046727 0.75413 0.28141 0.068169 0.6679 0.2187 0.026495 -0.12932 -0.56887 -0.16262 -0.04567 -0.0093741 0.38874 -0.29831 -0.096102 -0.36636 0.47036 0.55189 0.36582 0.026282 -0.30521 0.34866 0.021641 0.44547 0.28538 0.009486 -0.060134 -0.6152 0.1866 -0.38894 0.18854 -0.20432 -0.21741 0.15892 0.92955 -0.16149 0.18621 0.72045 0.056491 0.17849 -0.24916 0.38531 -0.4317 0.29693 -0.3071 0.40998 -0.15158 0.42 0.49265 0.049082 -0.075914 0.15227 0.05131 0.085724 0.73023 0.18477 -0.4207 0.054296 0.61805 0.18014 -0.087522 0.2713 0.11258 -0.08085 0.23965 -0.13006 0.42917 -0.1467 -0.11142 0.28987 0.39027 0.35125 0.084313 0.41233 -0.32899
chemistry -0.27996 -0.023825 -0.13312 0.10016 0.48986 0.058409 0.024609 0.34894 -0.82339 0.31202 0.10482 -0.46949 -0.11352 0.3464 0.13173 -0.27164 0.15908 -0.33967 0.13937 -0.2536 0.29057 0.03897 0.53378 0.16646 0.34156 -0.71599 0.5145 -0.023771 -0.21934 0.28338 -0.34538 0.19472 0.15908 0.1229 -0.57133 0.14243 -0.048412 0.77412 -0.35129 -0.2417 -0.4656 0.16781 0.23688 -0.23874 -0.2476 -0.12133 0.29163 0.68043 1.0271 0.47844 -0.21348 -0.22182 -0.45279 0.53833 0.19287 0.39453 0.51705 -0.26059 0.76978 -0.0075365 -0.24584 -0.084533 0.82213 0.22901 0.48702 -0.21586 0.36481 -0.14474 -0.40892 -0.61085 0.63035 -0.24934 0.12388 0.089888 -0.40754 -0.20218 0.34371 0.38294 0.54285 0.01545 0.10038 -0.44826 0.11259 0.35999 0.29843 -0.3935 -0.2373 0.23335 0.45506 1.0499 -0.50685 -0.41518 0.23915 0.66561 0.46195 -0.51852 -0.21613 0.24265 -0.50494 -0.38349
seafood 0.33037 -0.0017112 0.43528 0.15821 0.40714 0.34771 -0.27677 0.098022 -0.023132 0.67552 -0.038549 0.12606 -0.073413 0.38208 -0.013477 0.094495 0.08126 -0.3578 -0.15365 -0.054847 0.48669 -0.33959 0.13608 -0.061154 0.26539 -0.76529 0.93028 0.18004 -0.14635 0.56287 0.40859 0.48573 -0.013384 -0.45167 0.20472 -0.45968 -0.34761 -0.44052 -0.7556 -0.2458 -0.52421 0.096483 0.51072 0.073569 -0.22551 -0.1862 0.30956 0.4284 1.4018 0.28321 -0.29889 0.0027396 -0.61973 -0.68311 0.20897 0.35669 0.055905 -0.23749 0.66358 0.070242 -0.081316 -0.65126 0.22747 -0.029546 0.87633 0.13969 0.59539 -0.24374 -0.091023 -0.50971 0.56227 -0.37524 1.0813 0.10681 -0.19837 -0.59888 0.34139 0.21615 0.52822 0.44178 -0.058053 -0.090839 -0.18258 -0.10904 0.025317 -0.56498 0.13456 0.59178 0.69773 0.56236 -0.040746 -0.16027 0.26282 -0.189 0.50021 0.33665 -0.35689 -0.15136 0.59069 -0.084231
CD 0.2518 0.1528 -0.24117 -0.63816 0.47043 1.0467 -0.50073 0.54932 -0.18365 0.94828 -0.48816 -0.14022 0.23585 0.020211 -0.91507 0.16638 -0.1107 -0.92958 0.11046 -0.20008 -0.017105 0.3898 0.28 0.26808 0.22906 0.26874 0.86394 0.26135 0.41227 0.56301 -0.14941 0.40335 0.13489 0.24414 -0.7666 -0.31868 -0.29104 0.28067 -0.38517 -0.27306 -0.5022 0.28465 0.2953 0.71434 0.39648 -0.34587 0.31387 0.64585 0.40136 0.66903 -0.05302 -0.24657 -0.37782 0.066399 -0.48941 -0.17534 0.2578 -0.70242 -0.0080073 0.8483 -0.087941 0.028384 1.1556 0.13996 -0.097486 -0.19277 -0.10884 -0.40448 -0.083671 -0.49957 0.35726 -0.54089 0.47379 0.32519 0.12145 0.41126 -0.80082 -0.067507 -0.11772 0.24347 -0.15437 0.23629 -0.84297 0.28091 0.4089 0.20717 0.11266 0.0062479 0.020726 0.073493 0.15552 -0.040034 0.73451 0.29359 -0.50743 0.52104 0.13234 0.12476 0.026667 0.22822
mind -0.23732 0.096575 0.44975 -0.38753 0.10652 -0.085868 0.021297 0.57324 -0.89058 0.7359 -0.37851 0.081277 0.079874 0.020252 -0.42983 0.347 0.094631 -0.36017 0.28374 -0.043786 -0.097801 -0.044422 0.16035 0.091945 -0.25319 -0.1172 0.87952 2.1683E-4 -0.21582 0.32077 0.25201 0.60617 -0.29097 -0.16618 -0.79331 0.12872 -0.38844 0.0033926 -0.98958 -0.58134 -0.20262 0.28692 0.59137 -0.15798 -0.11479 -0.084823 0.069282 0.51756 0.30692 -0.061984 0.21083 -0.18847 -0.075536 0.49912 0.22862 -0.019043 -0.021306 0.050432 0.099819 0.35792 -0.26522 -0.23057 0.40182 0.28394 0.36955 -0.34315 -0.096355 -0.63297 -0.18541 -0.38511 0.42009 0.4639 -0.1308 -0.0042075 0.10254 -0.1649 0.4138 0.56194 0.13369 0.14054 0.42434 -0.22703 -0.60996 0.3048 0.14393 0.049659 -0.066005 -0.21574 0.42683 0.13119 0.20008 0.18227 0.56899 0.22502 0.21281 0.078292 -0.25336 -0.033854 0.05047 -0.1994
sex -0.30451 -0.33638 0.0088639 -0.67776 0.628 0.10147 0.31288 0.15816 -0.77557 0.1753 -0.52527 -0.2365 0.36845 -0.56976 0.28568 0.51076 0.93512 -0.47362 -0.64636 -0.054009 0.14064 0.12166 0.70705 0.29723 -0.39004 -0.41922 1.0042 0.34253 -0.11709 0.8252 -0.71068 0.60513 -0.28592 -0.48343 -0.040781 -0.27698 -0.7452 0.4684 -0.49393 -0.54693 -0.29841 0.0752 -0.16001 0.1661 -0.25407 -0.81706 0.3181 0.77789 0.88382 -0.19108 0.28537 0.24326 -0.85463 0.2014 -0.38423 0.35009 -0.15937 -0.83187 0.33575 -0.12182 -0.16975 -0.19107 0.51617 -0.24347 0.58581 -0.28984 -0.15682 -0.1188 0.26227 -0.42732 -0.32776 0.45672 -0.05475 0.26632 0.1608 0.0039697 0.57374 0.29096 -0.028293 0.41769 0.20595 -0.056889 -0.43755 0.25264 0.19577 -0.22665 0.15007 0.67304 -0.13231 0.14076 0.012432 -0.10378 0.64525 0.49489 0.34926 -0.14728 -0.45093 -0.10267 -0.56742 0.023024
food 0.098317 0.28016 0.2797 0.21933 0.70056 0.34058 -0.069676 0.16169 0.12074 1.0645 -0.14208 0.095951 0.15316 0.034138 0.15938 0.74768 0.073102 -0.48295 -0.54648 0.4796 0.52327 -0.13026 -0.0074103 -0.23405 0.16748 -0.9175 0.92971 -0.087669 -0.15482 0.4371 0.1608 0.72989 0.21504 -0.62946 -0.18072 -0.77831 0.23074 -0.059934 -0.69746 -0.032318 -0.85462 0.24937 0.631 -0.055324 -0.18455 -0.057385 0.35415 0.59604 1.1823 0.52123 -0.17115 -0.58543 -0.47444 -0.37043 0.18304 0.045617 -0.060711 -0.57034 0.43531 -0.032961 0.35134 -1.0574 0.18593 0.19039 0.47725 -0.029503 0.50486 0.12274 0.0013463 -0.49827 0.37219 -0.06182 0.64059 -0.31093 -0.1696 -0.58397 0.22961 -0.055473 0.21895 0.45188 0.059785 -0.14299 -0.14085 -0.19583 -0.26305 -0.37993 -0.14983 0.36673 0.59065 0.25256 -0.14216 0.057608 0.29479 0.23653 0.27195 0.14557 -0.021538 -0.25005 0.26294 -0.082086
precedent 0.15228 0.12475 0.55 -0.76994 0.4787 -0.31144 0.075609 -0.054189 -0.66115 0.39954 -0.30353 -0.43338 -0.77404 -0.65967 -0.34385 0.61176 0.388 -0.25935 0.19155 -0.27008 0.39523 -0.090122 -0.091976 -0.21035 -0.10587 -0.25425 1.0443 0.17195 0.12082 0.56866 -0.42972 0.43538 0.21716 -0.37298 -0.3318 0.52364 -0.26625 -0.4048 -0.56261 -0.18278 -0.3104 0.3138 0.11319 0.090347 -0.31916 -0.097001 0.029611 0.39795 0.7178 0.076372 0.26802 -0.15208 -0.23591 0.15677 0.029497 -0.10183 0.072492 0.026616 0.11912 0.15485 0.065126 0.29992 0.81951 0.63408 -0.0061397 -0.59173 -0.074736 -0.45874 -0.17938 0.10149 0.605 0.31193 0.24118 -0.7587 -0.021203 -0.18988 -0.20087 0.27908 0.33789 0.3546 0.33691 -0.20858 -0.34946 0.5777 0.29769 -0.044393 0.041923 -0.24703 -0.021473 0.17136 -0.2413 0.20848 0.45545 0.27356 0.33161 -0.16876 0.21236 -0.033891 0.15718 -0.62113
series -0.34077 -0.36394 -0.15832 -0.40336 0.24497 -0.0057245 0.34028 0.17549 2.3449E-4 0.62143 -0.57583 0.17414 -0.73367 -0.86922 0.17571 0.40666 0.42683 -0.49352 0.073501 -0.30878 0.053149 0.80935 -0.49738 0.12211 -0.014549 -0.35212 0.10216 0.15555 -0.11562 0.43746 -0.52779 0.54485 -0.075573 -0.15306 -0.15983 0.11375 0.21471 -0.47975 -0.17288 -0.32238 -0.35069 0.33521 0.34104 0.5131 0.67311 -0.075135 -0.15475 -0.020113 0.21777 -0.42703 -0.037853 0.0069467 -0.26946 0.50469 -0.12468 0.11311 -0.17348 -0.75053 -0.061182 0.4062 -0.39755 -0.054917 1.3513 0.19914 0.70608 0.13942 -0.17649 0.065961 -0.12306 -0.35645 0.85673 -0.11349 -0.10588 0.31411 0.26596 -0.29519 0.18739 0.58787 0.64969 0.1901 0.25025 -0.1589 -0.54694 0.58749 -0.19233 -0.26339 -0.10948 0.09216 -0.26839 -0.11477 -0.24517 0.18023 0.28524 0.13523 -0.22796 0.12814 0.16809 0.15932 0.27133 -0.26563
kilometer -0.24338 1.1473 1.3662 -0.23682 0.015639 0.3507 -0.39755 0.65538 0.41155 -0.71463 -0.70565 0.23955 0.13411 0.30962 -0.014107 0.69376 0.87146 -0.6338 0.7133 -0.16587 0.11541 -0.12362 0.019783 -0.76763 0.91765 -0.199 0.34443 0.2712 -0.87609 0.40352 0.093221 0.21855 -0.55054 -0.17685 -0.59268 -0.019849 -0.22829 -0.28277 0.53662 -0.041899 -0.13076 1.1214 -0.11338 -0.77919 1.2761 -1.2365 0.27165 0.64841 1.0075 -0.32876 -0.29782 -0.86259 -0.53102 0.039194 -0.51983 0.076717 0.17629 0.22473 0.90257 0.74649 0.25147 0.36886 0.65069 -0.22044 0.15967 0.94061 -0.44223 -0.73355 0.087652 0.13558 0.71079 0.26137 1.2539 -0.16662 -0.081377 -0.43179 0.040313 0.056835 0.42385 0.31639 0.16784 0.14168 0.52646 -0.18895 0.46204 -0.81444 -0.379 0.50199 -0.23276 0.23035 0.25363 -0.21297 0.44803 0.21663 0.43133 -1.0084 -1.8331 0.2881 -0.046834 -0.64558
grocery 0.023221 -0.032671 0.53664 0.32974 0.34441 0.44942 0.27596 0.055797 0.11583 0.80409 -0.078708 0.11131 0.11674 0.1894 -0.082637 0.46961 0.1844 -0.78346 -0.40503 0.51872 0.14408 -0.51567 -0.06008 -0.31237 0.69162 -0.39796 1.1644 0.55198 0.012328 0.56441 0.55404 0.2738 -0.044884 -0.36226 -0.28829 -0.72612 -0.10349 0.17782 -0.88166 -0.32005 -0.93775 0.45454 0.73539 -0.34434 -0.31306 -0.81858 -0.40926 -0.019508 1.2252 0.58228 -3.7713E-4 -0.51253 -0.34243 -0.6691 -0.0014188 0.11949 -0.11367 -0.48164 0.026232 0.4459 0.27534 -1.0236 0.49938 -0.23809 1.0047 -0.10262 0.75096 -0.19627 0.02075 -0.38319 -0.29285 -0.65214 0.57099 0.33798 0.037632 -0.70202 -0.13959 -0.12283 0.50652 0.43071 -0.01727 0.14934 -0.52934 -0.13336 0.26943 -0.28884 -0.28486 -0.21554 0.11641 -0.011555 0.31206 -0.27056 0.41774 -0.047591 0.12283 0.22537 0.0099805 0.1593 0.042579 -0.38056
wizard 0.17983 0.055812 0.26424 -0.6494 0.33263 0.31696 -0.18163 0.7118 -0.062485 0.80281 0.070605 0.016699 -0.063265 -0.1831 -0.29534 -0.15778 0.061903 -0.46055 0.082696 -0.7705 -0.49809 0.25493 0.071956 0.19557 -0.19577 -0.3085 0.43715 0.30872 -0.16699 0.54457 -0.13505 0.09994 -0.35119 -0.28575 -0.53606 -0.097916 -0.13122 0.080107 -0.30095 -0.39898 -0.18177 0.24325 -0.20263 0.56192 0.038283 0.44844 -0.11653 0.44877 0.94831 0.65946 0.086844 0.18491 -0.42689 0.40453 0.10177 0.083586 0.48378 -0.35512 0.19883 0.2748 -0.19941 -0.16955 0.92269 -0.17297 0.42824 -0.33102 -0.5267 -0.25023 -0.54838 -0.2543 0.041118 0.28677 0.15576 0.3143 0.40518 -0.13058 -0.034943 0.60058 0.45243 0.52753 -0.19865 -0.076317 -0.67219 0.70971 0.10898 -0.016386 -0.075517 -0.24316 0.35479 0.16918 0.24863 0.31905 0.41301 0.03784 -0.020116 0.17261 -0.17952 -0.14829 -0.010015 -0.43522
information 0.10493 0.38293 0.4851 0.045734 0.41702 0.61065 0.31213 0.47104 -1.1875 0.36641 -0.41245 0.17915 -0.54025 -0.34383 -0.51177 0.72598 -0.20663 -0.65223 -0.14594 -0.43436 0.3317 0.26353 -0.21214 0.1791 0.26196 -0.32834 0.97215 0.39992 0.11563 0.65222 0.40726 -0.0074649 -0.10124 -0.45948 -0.91273 -0.04191 0.20687 -0.0052613 -0.47658 -0.3421 -0.31695 0.34727 0.32821 0.51934 0.2304 -0.88193 0.44421 0.52784 0.4831 0.71698 0.22232 -0.11 -1.2905 0.27598 0.010815 -0.35089 0.48959 0.21018 -0.17733 0.45315 0.21731 -0.19973 0.053485 -0.43048 0.028799 -0.22075 -0.015117 -0.095236 0.22864 0.41643 0.7718 -0.23897 -0.070864 -0.35507 -0.055109 -0.16095 0.30767 -0.15216 -0.0084531 -0.66643 0.01182 -0.31328 0.12383 0.14534 0.53893 -0.19185 -0.13934 -0.069791 -0.017888 0.45609 0.13511 -0.19665 0.085864 -0.27156 0.83268 -0.071146 0.059232 -0.1339 0.024695 -0.21048
Israel 0.27323 0.076492 0.034303 -0.11907 1.0502 0.030778 0.16187 -0.20269 -0.68348 0.40234 -0.52242 0.054587 0.4107 -0.43919 -0.29796 0.81675 -0.024867 -0.68218 -0.52284 -0.7514 0.19243 0.086098 -0.58393 0.29541 -0.0057859 0.19289 0.13476 -0.46979 -0.61257 0.48368 -0.77287 1.1877 -0.35909 -0.70701 -0.26757 0.40362 -0.38865 0.15706 -0.81128 0.05708 -0.71899 -0.24445 1.0731 -0.54934 -0.71743 -0.95937 -0.48972 -0.70552 0.12224 0.22577 -0.12761 -0.61223 -0.48748 -0.38103 -0.75678 -1.0178 0.69073 -0.23927 0.061132 -0.25367 0.039891 0.18491 0.80351 0.86479 0.44563 -0.75013 -0.47503 -0.45885 -0.13006 -0.28838 1.1121 0.37878 0.40042 0.065259 0.32328 -0.5297 -0.087804 0.42619 -0.11626 0.26408 0.61323 -0.0048063 -0.12183 1.007 -0.35366 -0.16395 -0.4345 -0.27045 0.080113 0.41041 -0.38268 -0.22949 -0.017171 -0.22366 0.4781 -0.34027 -0.74227 0.45489 0.26188 0.0044269
brandy 0.19259 -0.40676 0.22777 -0.48018 0.31591 0.16046 -0.24327 0.16101 -0.35272 0.67384 -0.15435 -0.017303 -0.11879 0.4851 0.0075289 0.2026 0.022759 -0.3911 -0.25028 -0.29464 -0.091611 0.053791 -0.2943 -0.03441 -0.46413 -0.3944 0.78764 0.21669 -0.10154 0.58949 0.39213 0.42244 -0.30379 -0.038112 -0.38573 -0.77391 -0.069172 -0.0090694 -0.58362 -0.28913 -0.5013 0.35664 0.21294 0.086826 -0.24857 -0.26376 0.14752 0.17728 0.95769 0.47669 0.062371 -0.079658 -0.041861 -0.37334 0.060378 0.59768 0.11628 0.015897 0.06945 0.29513 -0.090022 -0.29482 0.38949 -0.022095 0.71654 0.088891 0.21474 0.21203 -0.04342 -0.34775 -0.2844 -0.19505 0.16449 0.15158 0.2319 -0.30123 0.29144 0.3258 0.50343 0.40401 -0.040727 0.5407 -0.75347 -0.22691 0.39213 -0.34272 -0.14736 -0.18931 0.28907 0.29356 0.069444 0.055548 0.30959 -0.25079 0.40502 -0.19627 -0.12943 0.031605 -0.10264 -0.38238
interview -0.10744 -0.27525 0.62602 0.12352 0.64841 -0.09095 0.11617 0.45668 -0.86269 -0.37753 -1.0901 -0.080921 -0.36769 -0.24705 0.24441 0.57768 -0.25248 -0.18124 -0.54186 -0.47767 -0.077255 0.25302 -0.01063 0.50748 -0.25477 -0.47527 0.30832 -0.12023 -0.34632 0.087599 0.51746 -0.2198 0.13522 -0.71632 -0.48494 -0.21421 -0.46735 -0.067913 -0.079772 -0.47769 -0.9841 0.2875 0.34512 -0.038724 0.31058 -0.22192 0.43958 0.47828 0.23845 -0.17934 0.76602 -0.3301 -0.27481 0.28702 -0.056548 0.096191 0.40782 -0.29141 -0.15358 0.90384 -0.036314 0.40962 1.0294 0.51976 0.49243 -0.62269 -0.67897 4.1248E-4 -0.13786 -0.13591 0.63657 -0.3357 -0.086237 -0.090716 0.14186 -0.43364 0.020497 0.061986 1.0385 0.28924 -0.096565 -0.43885 -0.045413 0.11288 0.10163 -0.14889 0.018786 -0.22724 -0.56357 0.11169 0.23169 0.069484 0.30714 -0.14127 0.029226 0.059404 -0.26091 0.43304 0.072225 0.25833
prominence 0.025949 0.013884 0.22343 0.13421 0.65387 -0.26404 0.060655 0.014297 -1.1723 0.41877 -0.14196 -0.45068 -0.31485 0.04246 0.027345 0.52836 0.22955 0.20023 -0.086517 -0.23929 0.13593 0.22407 0.11344 -0.62828 -0.26195 -0.26052 0.64187 0.31288 -0.0072037 0.040128 -0.29915 0.29976 -0.41456 -0.26889 -0.46597 -0.13737 0.15275 0.26419 -0.29141 -0.31005 0.022743 0.14476 -0.045077 -0.092351 0.27133 -0.25827 0.31079 0.27265 0.80557 0.38501 0.65749 -0.2614 -0.24744 0.13333 -0.70084 -0.26644 0.085959 -0.63176 0.13377 0.24837 -0.38489 -0.43406 1.0018 -0.066416 0.41017 -0.051271 0.21774 -0.076289 -0.14711 -0.14758 0.24323 -0.25339 0.066613 -0.36951 0.50792 -0.016829 0.13809 0.16463 0.25278 0.32527 0.35812 -0.20818 -0.34327 0.3776 0.36036 -0.19689 0.0091357 -0.30918 0.25729 0.30442 0.14706 0.39321 0.29406 0.10276 0.12521 0.063361 -0.031893 -0.024478 -0.43424 -0.50299
bed 0.047753 0.15548 0.30506 -0.71799 0.48396 0.68248 -0.32864 0.40051 -0.42441 0.23392 -0.58085 0.29939 0.56414 0.068407 0.44351 0.33761 0.24388 -0.69023 -0.57281 -0.18004 -0.1229 -0.064152 0.37778 -0.25659 -0.15156 -0.20271 0.52112 0.089705 -0.020548 -0.14183 0.36925 0.42554 0.016126 -0.077757 -0.42614 0.16155 -0.54323 0.13529 -0.40966 -0.057576 -0.59759 0.51498 0.28856 0.04547 0.18003 -0.23786 -0.16208 0.63176 0.27978 -0.099629 -0.078731 -0.85837 -0.48042 0.013739 0.19451 0.16023 0.013 -0.35642 0.62222 0.58589 -0.021579 -0.5437 0.2636 0.11292 0.93124 -0.94197 -0.16058 -0.13006 -0.035512 -0.37729 0.27808 -0.021959 0.022978 0.20181 0.32617 0.07514 0.60625 0.20424 0.49507 0.60034 -0.12506 0.45816 -0.62914 -0.23497 0.0033521 -0.23338 -0.072313 0.15047 0.57585 -0.27478 0.10764 0.24244 0.70144 0.53872 0.48963 0.1646 -0.61774 0.24275 0.29033 0.15874
furnace -0.3585 0.51622 0.46557 -0.35507 0.1522 0.56253 -0.28592 0.31959 0.15989 0.64802 -0.14461 0.45707 -0.41896 0.10629 0.16088 0.36939 0.21618 -0.3704 -0.025566 -0.099882 0.18564 -0.07512 -0.23954 -0.343 0.091676 -0.14056 0.49765 0.21643 -0.34356 0.31777 0.31 0.80757 0.15943 0.20986 -0.53188 -0.12376 0.35403 0.13729 -0.38685 0.31052 -0.23849 0.13729 0.43204 -0.1369 0.12307 0.097601 -0.16921 0.47966 0.49203 0.43779 -0.40571 -0.60352 -0.84079 -0.50721 0.051987 0.30345 0.021636 -0.28629 0.42611 0.28874 0.20954 -0.63834 0.49095 0.27771 0.94337 -0.60598 0.21839 -0.34992 -0.035484 -0.53749 0.60985 -0.39326 0.050282 0.10463 0.24907 -0.17724 0.2739 0.53312 0.41656 0.5003 0.034911 -0.20816 -0.59704 -0.51501 0.03457 -0.12298 -0.33912 0.31146 0.12925 0.53184 0.014414 -0.2139 0.39032 0.14959 0.47076 -0.30329 -0.50488 0.0057479 0.16756 0.040646
evidence -0.023757 -0.22359 0.53712 -0.10742 0.82915 0.4877 -0.058345 0.33812 -1.0427 0.30539 -0.65081 -0.038631 -1.0028 -0.16803 0.23372 0.93844 0.3622 -0.78195 -0.15673 -0.71905 0.23295 0.13865 0.60391 -0.48335 -0.13653 -0.55716 0.81281 0.64866 0.024116 0.18038 0.087473 0.36474 0.090165 -0.68032 -1.004 0.027705 0.05983 0.10486 -0.43813 -0.14355 -0.1885 -0.082868 0.27465 -0.17742 -0.18254 -0.20208 0.14561 0.77881 0.4312 0.16025 -0.01383 0.035108 -0.68338 0.52454 0.30512 -0.54181 -0.13655 -0.078124 0.016145 0.10887 0.31876 -0.086737 0.11885 0.65975 0.15821 -0.3418 0.17709 -0.21615 -0.034512 -0.034567 0.27885 -0.30718 0.19291 -0.30368 -0.27787 -0.16495 0.16361 -0.024412 0.39437 0.36261 -0.14418 -0.37381 -0.073311 0.52751 0.20525 -0.035606 0.02747 -0.17083 0.29568 0.20386 -0.31266 -0.47655 0.8126 0.50868 0.39142 -0.27396 0.2236 -0.0644 -0.47731 -0.2907
sprint 0.026482 0.62604 0.80709 -0.45894 -0.2697 -0.15904 -0.052126 -0.080406 -0.043245 0.34951 0.2989 -0.48832 -0.16148 0.10414 0.4326 0.53405 0.50199 0.12235 0.6182 -0.57415 0.0015889 0.12316 0.5732 -0.39298 -0.036411 -0.39225 0.078097 0.39516 -0.13287 0.021365 0.12396 0.40879 -0.52777 -0.22709 -0.40535 -0.37804 -0.46476 -0.34043 -0.265 -0.088307 -0.60911 0.76222 0.4195 0.18297 0.45962 -0.55463 0.69903 0.4457 1.056 -0.14683 -0.019536 -0.29522 0.22185 -0.058943 -0.4931 0.028572 0.026302 -0.51625 -0.0071535 0.56512 0.2403 0.67314 0.81228 0.35096 0.53052 0.79885 -0.13668 -0.062586 -0.17372 -0.25777 0.18244 0.0059463 0.3295 -0.044441 0.26918 0.39555 0.21625 0.54132 1.1161 -0.13976 -0.089063 -0.36879 -0.77105 0.4998 -0.29207 0.086053 -0.39593 0.14607 0.45655 0.37737 -0.24287 0.32476 0.52887 0.40277 0.38827 -0.96433 -0.18872 0.89308 -0.51498 -0.3379
emergency 0.21491 0.23903 0.87634 -0.59063 0.35087 -0.13091 0.61196 0.43399 -0.26917 -0.069177 -0.76902 0.18785 -0.48615 -0.21444 0.1914 0.82546 0.074588 -0.71471 -0.55364 1.0266 0.040284 -0.62251 -0.22122 -0.11662 -0.12839 -0.57365 0.30252 -0.34932 -0.38416 0.17913 0.052874 0.019299 -0.016442 -0.48395 -0.40228 -0.055805 0.10445 0.1297 -0.32092 0.6518 -0.30681 0.36283 0.14618 0.78124 -0.11126 0.080944 0.26487 0.32626 0.53755 0.18136 0.15155 -0.74517 -0.43523 -0.056073 -0.31602 0.11005 -0.19663 -0.85924 0.0053243 1.0161 0.17003 -0.045359 0.46436 0.49151 -0.013513 -0.75398 0.34715 -0.61758 0.098468 0.0073193 1.131 0.34176 0.30788 -0.63243 0.30578 -0.40213 -0.0169 0.54427 -0.054406 0.051054 0.002953 0.75738 -0.24384 0.01311 -0.077045 -0.43602 -0.24283 0.19138 0.022131 0.19442 -0.14678 -0.25808 0.23909 0.23011 0.31921 0.063762 0.052723 0.23362 0.73418 0.2904
Jackson 0.36588 -0.15778 -0.42566 -0.26462 0.16792 0.32574 -0.36241 -0.065938 -0.14847 0.69775 -0.24774 -0.052211 -0.1888 -0.48662 -0.82519 0.51351 0.46017 -0.59569 -0.079742 -0.39482 0.12341 0.53747 0.3453 -0.35622 -0.66878 -0.60631 -0.060945 -0.19091 -0.0074079 -0.15359 -0.28574 0.25815 -0.39472 -0.24055 -0.98491 -0.012613 -0.55142 0.21594 -0.54305 -0.35821 -0.15886 0.66006 0.0089826 0.47797 0.38992 0.22444 0.19923 0.060758 0.65054 0.82118 0.095809 -0.80656 -0.072452 0.078007 -0.15925 -0.034073 0.28104 -1.3441 0.15243 1.0028 -0.36731 -0.467 0.16806 0.20595 -0.27317 -0.23375 -0.030516 -0.50957 0.38356 0.081218 -0.16763 0.073662 -0.10979 -0.1185 0.21257 -0.67867 0.12375 0.031436 0.46588 -0.053446 0.21484 -0.34232 -0.63851 1.0659 -0.003548 -0.53043 0.0017634 -0.23741 -0.50579 0.47815 0.43892 -0.067648 0.39296 0.38863 0.51343 0.017137 -0.35978 0.31693 -0.19931 0.11131
institution 0.013333 -0.082649 0.62401 -0.39029 0.92097 -0.30822 -0.20876 0.041952 -0.26477 -0.053274 -0.48621 -0.14177 -0.15798 -0.3243 -0.13032 0.076331 0.45333 -0.31667 -0.15923 0.21527 -0.22572 0.11973 0.15546 -0.27763 0.088778 0.017263 1.3246 -0.10281 -0.24617 0.50491 -0.10736 -0.050057 0.10585 -9.0095E-4 0.21267 -0.0090286 0.57438 0.26924 -0.77411 0.02834 -0.22646 0.59547 -0.33655 0.02643 -0.34634 -0.41428 0.08778 0.0517 0.89798 0.50957 0.53978 -0.21139 -0.31297 -0.013005 -0.1841 -0.38833 0.11169 -0.30131 0.0093467 0.49641 0.45976 0.16589 0.65243 -0.017615 0.14116 -0.77466 -0.051509 -0.60685 0.077009 -0.56269 0.69895 0.40016 0.043422 -0.36622 -0.025397 -0.025021 0.26445 0.2606 0.33458 0.19953 0.59444 -0.078498 -0.14966 0.71048 0.40366 -0.08609 -0.096725 0.096763 0.086842 0.024318 -0.21398 -0.21846 -0.049837 0.51648 0.21319 0.15797 0.27315 0.032256 -0.053962 -0.45451
bird -0.31148 0.27035 0.77085 -0.024644 0.26778 0.3602 -0.226 0.66459 -0.32755 0.57518 -0.34045 0.37925 0.09395 0.26765 -0.24991 -0.096293 0.2697 -0.13892 -0.27755 -0.16052 0.039623 0.1011 0.35601 0.56658 0.49777 -0.47921 0.6968 -0.054334 0.0846 -0.069423 0.17234 0.67104 -0.41682 -0.49119 -0.59711 -0.4064 -0.36237 0.032738 -0.56349 0.13218 -0.16356 -0.38526 0.48137 0.33498 -0.13847 -0.19218 -0.054346 -0.19966 1.7177 -0.084622 -0.10835 -0.0041332 -0.60267 -0.064698 -0.19323 0.023602 0.34008 -0.075255 0.38795 0.24217 -0.37607 -0.2989 0.024338 -0.10538 0.84773 0.32563 0.41896 -0.89586 -0.40734 0.27931 0.58494 0.20502 0.90629 0.23113 -0.11917 0.06932 0.80418 0.93497 0.26456 0.54538 0.093905 0.22922 -0.86376 0.38331 -0.218 -0.32819 -0.16928 0.036113 0.13305 0.18552 -0.28418 -0.0091709 0.91157 -0.17344 0.42443 0.025451 -0.36864 -0.60735 0.63004 -0.016017
Brazil 0.19803 -0.070989 0.43314 0.51656 0.79431 -0.13733 -0.49291 -0.26285 -0.61987 0.24636 0.24924 0.097041 -0.51444 -0.35251 -0.69203 1.3412 0.54872 0.16989 0.026189 -0.017221 0.35552 0.30614 -0.040396 -0.13386 -0.14581 0.37306 -0.30074 -0.53093 -0.48694 0.49552 0.096342 0.4943 -0.73106 -0.21805 0.31631 0.093029 -0.32329 0.12115 -0.24998 0.17031 -0.91896 0.27866 0.20251 0.56357 0.20983 -0.32516 0.41764 0.44001 0.82732 0.18224 -0.032487 -0.08732 -0.40876 0.11775 -0.37341 -0.20935 -0.38292 0.22832 0.69198 0.6929 0.13053 -0.32053 1.0045 0.70666 0.56131 0.3717 -0.44276 -0.64938 -0.26656 -0.43069 0.21346 0.097035 0.4331 -0.631 0.33134 -0.21736 -0.3589 -0.032071 0.49243 -0.056835 0.15138 0.36125 0.050255 0.20964 -0.19837 0.13613 0.12388 0.53746 0.15201 0.30088 -0.38043 -0.16046 0.48876 -0.15186 0.69483 -0.41533 -0.37571 0.4598 0.34414 0.22335
warning -0.18368 0.75065 0.77925 -0.7774 0.25394 0.097494 0.34024 0.96892 -0.14983 0.37749 -0.61852 -0.45821 -1.2361 -0.30235 -0.17209 1.3148 0.03326 -0.54588 0.052447 -0.6249 -0.0085321 -0.16849 -0.11482 -0.13914 0.056253 -0.51426 0.74626 0.19932 -0.10136 0.32237 0.17527 0.42283 -0.085747 -0.85823 -0.51121 0.13249 -0.0081877 0.016824 -0.54956 0.56374 -0.32273 -0.12983 -0.16785 0.38191 -0.38977 -0.32924 0.32398 -0.31295 0.43279 0.12486 0.31488 -0.2783 -0.12424 0.038383 0.070941 -0.09451 0.06365 -0.44078 0.26491 0.53261 0.13848 -0.18129 0.80488 -0.24447 0.051407 -0.19383 0.17692 0.21449 -0.094553 0.12519 0.38391 0.074985 0.32649 -0.50486 -0.42061 -0.080436 -0.14326 0.36849 0.35136 0.66327 -0.1557 0.26769 -0.30418 0.090861 -0.13089 -0.16678 -0.10362 -0.17101 0.16926 0.069335 -0.23404 0.10223 0.48859 -0.59785 0.36585 0.019839 0.016738 -0.12125 0.15658 -0.037716
implement 0.071833 0.49125 0.4845 -0.84605 0.79619 0.19659 0.49531 0.10915 -0.35921 0.40778 -0.55951 -0.055402 -0.27632 -0.062639 -0.14785 0.53434 0.13213 -0.84024 -0.54777 0.20899 0.56065 -0.06869 -0.93498 0.13626 0.52995 -0.25554 0.99447 -0.028187 -0.72274 0.36977 0.034839 -0.25838 0.087154 -0.19834 -0.18833 0.28238 0.008777 0.21583 -0.58038 -0.19642 -0.30028 0.23053 0.54207 0.76282 0.049119 -0.44961 0.40261 0.2511 0.28127 -0.044929 0.38776 -0.14957 -0.16904 0.13302 -0.14505 0.1148 -0.47974 0.24555 0.14924 0.54981 -0.076864 0.17245 0.76865 0.51737 -0.22228 -0.39942 0.13834 -0.26831 0.15655 -0.21038 0.36109 0.053269 -0.27109 -0.58378 0.20541 -0.41762 0.18279 0.30033 0.50526 0.33191 0.21248 -0.31724 0.078486 0.30588 0.064283 -0.010579 -0.50985 0.43857 0.25814 0.88436 -0.41628 -0.17529 -0.033781 0.23413 0.19013 -0.4927 0.30474 0.0083127 0.60362 -0.56471
train -0.21113 0.54702 0.74179 -0.47926 0.36628 0.10892 0.047097 0.4645 -0.011555 -0.15826 0.07525 0.291 -0.010451 0.11154 -0.097023 0.66734 0.086149 -0.64036 0.070995 0.30569 -0.050101 -0.58594 -0.43585 -0.14201 0.64617 -0.47473 0.22702 0.30985 -0.25258 0.26144 -0.15343 -0.023824 0.011848 -0.2967 -0.20374 -0.25023 0.1931 0.15767 -0.71649 0.58854 -0.59366 0.27477 0.56813 0.19493 0.82208 -1.1217 0.35085 0.16931 0.076296 0.19644 0.37314 -0.32924 -0.23774 -0.13319 -0.12022 0.23889 0.21952 -0.42937 -0.17912 0.47064 0.17621 -0.14496 0.38301 -0.028367 0.32398 -0.27191 0.073629 0.031158 -0.65312 -0.10399 0.42025 0.36951 0.45341 0.28252 0.82999 0.38345 0.27535 0.98343 0.86474 0.0060665 0.071134 -0.232 -0.73723 0.18544 0.0014694 -0.32159 0.12027 0.091105 -0.035445 0.1891 0.1644 -0.288 0.80731 0.39389 0.42731 -0.53908 -0.1742 0.39013 -0.043187 -0.14695
area -0.47355 0.2665 0.92096 0.12907 0.36503 0.26745 -0.3875 0.3455 -0.24469 -0.53042 -0.33927 -0.032314 -0.67314 0.012905 -0.063498 0.33335 0.71862 -0.56249 0.011701 0.34749 0.15928 0.21142 -0.39175 0.044188 0.15602 -0.33528 0.28675 0.41415 0.12504 0.30417 -0.26392 0.36598 -0.042756 -0.060795 -0.21992 0.27049 -0.14451 0.016751 -0.75821 -0.0060881 -0.10517 0.51587 0.18869 -0.32959 0.55181 -0.54997 -0.1933 0.12161 0.48704 0.44316 0.17067 -0.34203 -0.44441 -0.63008 0.04069 -9.6852E-4 -0.21224 -0.21346 0.087767 0.74036 -0.0014507 -0.32791 0.28143 -0.1406 0.17678 -0.27961 0.34363 -0.56466 0.094742 -0.012115 0.41925 -0.34943 0.17724 -0.1191 0.035858 -0.28112 0.66758 0.11226 0.67225 0.44863 -0.049106 0.38494 -0.15405 0.44571 0.30715 -0.43332 0.039665 0.25091 0.14743 0.0094188 0.1002 -0.032776 0.41416 0.038364 0.33035 -0.3471 -0.54226 -0.016024 0.72916 -0.12422
image -0.016086 -0.20438 0.50894 -0.64101 0.59553 0.29563 -0.03657 0.40902 -0.76246 0.66471 -0.023732 -0.16473 -0.20708 0.28778 0.035875 0.65077 0.048002 0.033656 0.019024 -0.3038 -0.046957 0.3225 -0.1529 -0.20172 -0.57232 -0.16682 0.49786 0.26283 -0.48977 0.91706 -0.30974 0.20076 -0.060938 -0.29332 -0.83169 -0.17351 0.037944 0.20314 -0.67108 -0.35894 -0.081809 0.46221 -0.18532 -0.22146 -0.29198 -0.26833 0.43906 0.5963 0.54865 -0.14256 0.13301 -0.053384 -0.43613 0.0024803 -0.32829 -0.3386 0.40372 0.12614 0.01371 0.17007 0.13199 0.036965 0.68253 -0.22635 0.5805 5.5281E-4 -0.59884 -0.95041 0.1521 -0.26769 0.26887 -0.19544 -0.26983 -0.072773 0.25032 0.22656 0.46576 0.72736 0.85424 0.45489 0.053377 0.20503 -0.36864 0.11924 -0.18733 0.063255 -0.038394 0.26212 -0.30395 -0.22506 -0.10605 0.11744 0.63692 -0.041944 -0.024686 -0.05228 -0.023718 -0.5264 -0.019018 -0.22624
murder -0.19771 -0.63302 1.2412 -0.010502 0.33378 -0.18582 0.061668 -0.13529 -0.83601 -0.41003 -0.39081 0.018322 -0.053654 -0.44091 -0.48931 -0.28888 0.64252 -1.309 -0.69439 -0.090835 0.14848 -0.39626 0.57811 0.18042 0.081144 -0.18701 0.78274 0.24208 -0.398 0.393 -0.78127 0.25785 -0.069278 -0.03315 -1.3676 -0.21541 -0.037477 -8.7416E-4 -0.74336 -0.70489 -0.38595 0.27558 -0.32543 -0.018011 0.88067 -0.55579 0.42409 0.33268 0.68573 0.39221 -0.25439 0.27706 -0.39156 0.067097 0.62827 -0.71758 -0.24679 -0.63453 -0.53748 -0.16286 0.0044811 -0.074239 0.6048 0.70026 0.82186 -0.51102 0.22668 0.080539 -0.2001 0.080478 -0.16154 0.13337 0.50069 0.55976 0.46029 -0.41414 -0.083709 0.23341 0.22382 1.1615 0.23353 -0.23299 -0.37842 0.23382 0.076276 -0.60481 0.055678 -0.27853 -0.11677 0.30851 -0.50035 -0.20665 0.3871 0.2728 0.55352 -0.39942 -0.73976 0.62442 -0.66924 -0.47975
journey 0.33482 0.29272 0.6197 -0.40769 0.18799 -0.16784 0.31557 0.6596 0.053841 0.14389 -0.36966 0.36209 0.32391 -0.411 -0.047703 0.26418 0.13175 -0.56761 0.23814 -0.23591 8.1441E-4 -0.071627 -0.0819 -0.54554 0.63964 -0.60268 0.02944 -0.55949 0.13054 0.43318 -0.43721 0.35754 -0.081976 -0.012163 -0.47784 -0.17071 -0.15377 6.4458E-4 -0.52655 -0.46389 -0.35299 0.55619 0.64937 0.23473 0.73556 -0.68773 0.3069 0.83142 0.68792 -0.18077 0.46854 -0.24427 0.30111 0.18202 0.093505 -0.016071 0.042506 -0.080841 0.35154 0.32746 0.53122 0.21284 0.69369 -0.27068 0.16952 -0.026885 -0.63799 -0.22924 -0.41783 -0.055043 0.12479 0.083165 0.29599 0.11701 0.51162 -0.025141 0.73469 1.2119 0.67682 0.28622 0.018719 -0.39694 0.044415 0.33448 -0.25323 -0.25214 0.26879 0.20989 -0.046248 0.1086 -0.12629 0.0049244 0.48737 -0.014155 0.83373 0.092972 -0.81081 0.10351 -0.003226 -0.34402
minister 0.082036 0.46494 0.99578 -0.22934 1.4109 -0.13044 0.15239 0.12971 -0.29182 -0.69931 -0.18407 -0.31886 -0.82234 0.12902 0.20034 0.545 0.16833 -0.3281 -1.5207 0.15415 0.26531 0.11713 0.06788 0.11787 -0.16845 -0.26761 0.5523 -0.12592 -0.33293 -0.12061 0.42956 0.1983 -0.48528 -0.48162 0.19395 0.081892 -0.18743 0.34784 -0.89512 -0.90223 0.017991 0.19121 -0.0043244 0.1659 0.16717 -0.16375 0.041188 -0.029932 0.10741 0.3692 -0.051392 -1.1071 -0.82624 0.91218 -0.60993 -0.61783 -0.23309 -0.24914 0.40045 -0.43314 0.14005 0.044457 1.1443 0.025338 0.52424 -0.73511 -0.069924 0.069231 -0.29307 -0.57597 0.39246 0.034026 0.52529 0.069855 0.54709 -1.0314 -0.3251 0.40814 0.39937 -0.30354 0.3975 0.041582 -0.33076 0.23409 -0.028404 0.63368 -0.60102 -0.25333 -0.012313 0.38737 -0.15052 0.2745 0.38703 -0.32559 0.77223 -0.10057 -0.49171 0.38004 -0.15289 -0.17321
planet -0.17581 0.53854 0.62156 -0.24711 0.77437 0.398 -0.73774 0.59735 -0.027078 0.097412 -0.20538 0.88288 -0.18339 -0.16571 -0.71686 0.088848 -0.00819 0.12841 0.035221 -0.44261 0.80803 0.11602 0.32807 -0.065466 0.011251 0.055053 0.33073 -0.4441 -0.7396 0.3787 -0.45852 0.7012 -0.21016 -0.30422 -0.32827 -0.16071 -0.19526 0.19434 -0.6683 -0.26123 0.24916 0.45051 0.42185 -0.37861 0.030928 -0.15504 0.21511 0.69061 1.361 -0.10792 -0.37352 -0.10113 -0.3089 0.61329 5.6022E-4 -0.3098 0.30667 0.1141 0.69284 0.3475 -0.19986 -0.33363 0.53114 -0.13339 0.38961 -0.03615 -0.72105 -0.71397 0.21461 -0.5319 0.53583 0.35805 0.18758 -0.37488 0.0042875 0.27561 0.3897 0.6546 0.21697 0.50841 0.27335 -0.061153 -0.5758 0.20941 -0.074944 -0.43579 0.13723 0.59359 0.44745 0.20225 -0.18058 0.56621 0.53692 0.52383 0.54396 -0.7387 -0.30641 -0.50807 0.22481 -0.056902
article -0.34921 0.91099 0.83157 0.14092 0.31512 0.16935 -0.26632 -0.043741 -0.75849 0.79964 -1.1054 -0.13341 -0.098271 -0.31498 -0.2502 -0.2855 0.50989 -0.18591 -0.61738 -0.51317 0.095889 -0.32032 0.3457 0.16359 0.31069 0.076874 0.52012 0.026403 -0.20252 0.55127 0.82393 0.0044942 -0.077132 -0.16616 -1.1558 0.20214 -0.14897 -0.54894 0.26262 -0.84168 -0.14326 0.21757 0.38427 -0.43391 -0.0924 -0.83851 0.22386 0.56791 0.88384 0.43157 0.76294 0.064018 -0.34291 0.69216 -0.55042 -0.2078 0.13235 -0.52786 -0.98628 0.76191 -0.0088361 0.33804 0.28166 -0.17582 0.36185 -0.55686 -0.457 0.51062 -0.47819 -0.73034 1.1057 0.011473 0.42416 0.59812 -0.011184 -0.33485 -0.19271 0.15677 1.8762 0.21538 0.75352 -0.36103 0.84136 0.2699 -0.14912 -0.2582 0.60389 -0.10357 -0.29568 0.25496 -0.92685 0.015458 -0.11951 0.41225 -0.097502 0.016891 -0.57231 -0.53844 0.36275 -0.054173
anxiety -0.16545 -0.27795 0.021269 -0.048632 0.41001 -0.12876 0.076065 0.82129 -0.93612 0.40743 -0.64108 -0.57251 -0.075998 -0.59584 -0.088807 0.49384 0.33537 -0.28353 -0.045846 -0.14745 -0.075638 -0.04757 0.50646 -1.0773 -0.32719 -0.53478 0.89076 -0.18335 -0.19837 0.0080983 0.23347 1.1662 -0.10783 -0.15345 -0.59483 -0.041285 0.39353 0.28198 -0.39929 0.0036507 -0.35298 0.023891 0.31231 0.23857 -0.48192 -0.5227 0.35681 0.69789 -0.030503 0.57321 0.65939 -0.5714 -0.40848 0.23879 0.11752 -0.20208 -1.2158E-4 -0.34154 0.1408 0.070762 -0.18873 -1.099 0.88111 -0.51521 0.45891 -0.51652 0.062563 -0.05993 -0.31641 0.50048 0.79842 0.60535 0.056727 -0.32271 0.0024741 -0.30653 0.40966 0.57383 0.034635 0.18427 0.08804 -0.13164 -0.6539 -0.18898 0.17569 -0.52087 0.10397 0.42447 -0.094125 0.38747 -0.03542 -0.065063 0.38286 0.62353 0.037708 -0.269 0.14036 -0.20998 0.11855 0.049898
month -0.27327 0.27704 0.86808 -0.044167 0.71042 -0.29918 0.012197 -0.29247 -0.097544 0.50841 -0.96004 0.14997 -0.60509 -0.077458 -0.31667 0.45191 0.43254 -0.16831 -0.048272 -0.0060338 -0.19139 -0.20556 0.091274 0.066646 0.4931 -0.52418 0.86789 0.11841 -0.071733 0.091251 -0.44394 0.56626 -0.33618 -0.65888 -0.36122 0.011595 0.26572 -0.22185 -0.22061 -0.55775 -0.76201 0.40463 0.092286 -0.18908 0.4418 -0.32164 0.028604 0.37755 0.08311 0.21612 0.1645 -0.8848 0.29146 0.23086 -0.54561 0.48474 0.19954 -0.42397 0.084361 0.87209 0.27091 0.36498 0.95547 0.29888 0.54404 0.14843 0.25266 -0.35896 -0.026103 0.12868 0.33021 -0.36839 -0.31446 3.4415E-4 0.034371 0.1648 -0.090313 -0.35854 -0.028155 0.21298 0.33441 0.33027 0.23533 0.041187 -0.3594 0.031082 -0.12001 0.24326 -0.092664 0.030029 -0.15144 0.085391 0.009928 0.20861 0.24047 -0.13038 -0.27644 0.18268 0.38226 0.03645
carnivore 0.056622 -0.0049916 0.38988 -0.10519 0.75857 0.33161 -0.4886 0.41457 -0.50881 0.53469 -0.038347 0.39664 -0.18924 0.027437 -0.28656 -0.17805 0.54417 -0.037526 -0.11955 -0.22486 0.067872 0.10336 0.32613 -0.21787 0.23279 -0.27999 0.65157 -0.10469 -0.15036 0.42723 -0.23374 0.64964 -0.40903 -0.10216 -0.21908 -0.44449 -0.54888 -0.18276 -0.17224 -0.14482 -0.46996 -0.087628 0.17528 -0.072641 -0.13644 -0.1121 0.19281 0.49464 1.3192 0.18433 0.19068 0.13023 -0.43248 -0.23509 0.26562 0.39228 0.19985 -0.23816 0.68556 0.12667 -0.21458 -0.64444 0.41267 0.052184 0.63708 0.11831 -0.037322 -0.60988 -0.30361 -0.29384 0.27333 0.20519 0.55005 -0.075488 0.11514 -0.25047 0.42084 0.56779 0.66924 0.50793 -0.14742 0.10218 -0.71214 0.25242 -0.008221 -0.22297 0.099918 0.29374 0.25752 0.30654 -0.16229 0.1249 0.55794 0.048058 0.60858 -0.11975 -0.33353 -0.26667 -0.12504 -0.2702
party -0.19237 0.37321 0.78645 0.059837 0.58268 0.022795 0.013985 -0.66894 -0.59968 -0.13661 -0.74204 -0.10901 -0.52059 -0.23415 -0.51984 0.22473 0.28682 -0.19011 -0.60337 0.11438 0.67052 0.15406 -0.086091 -0.51242 -0.10485 -0.34543 0.52916 -0.19734 -0.29886 0.36839 -0.057129 -0.44606 -0.37976 -0.0076738 -0.23428 -0.43081 -0.044379 0.11974 -0.72521 -0.46132 -0.27599 0.15248 -0.04048 0.013927 -0.34539 -0.90423 0.32139 0.16968 0.11826 0.067622 0.025125 -1.0598 -0.032873 0.15268 -0.20287 -0.0029251 -0.25152 -0.43123 0.58098 -0.2344 -0.044512 -0.23238 0.68448 -0.18055 0.57896 -0.071048 0.0050956 -0.36903 0.3561 0.040619 0.42493 -0.10855 0.24403 0.11732 0.28456 -0.34191 0.21453 0.55619 0.35199 0.46849 0.6901 0.1854 -1.0988 0.1067 0.10248 0.32137 -0.58161 -0.053924 0.29482 -0.11807 0.35693 0.49554 0.50623 0.31751 -0.016187 0.23255 0.24783 0.40087 -0.28397 -0.72968
production -0.037857 -0.22952 0.19078 0.40103 0.32128 0.42789 -0.56523 -0.027925 0.073876 0.87481 -0.53605 0.11057 -0.21642 -0.19464 -0.4894 0.24354 -0.026195 -0.44725 -0.070406 0.0079861 0.1417 -0.1411 -0.62923 -0.61092 0.53579 -0.45746 0.21878 -0.010676 -0.11367 0.35199 -0.14115 0.46551 -0.054543 -0.17863 -0.23904 -0.44416 0.15116 0.52741 -0.45869 0.37329 -0.45595 -0.060264 0.59748 0.21109 0.64485 0.47594 0.23078 0.62629 0.42871 0.31098 -0.0020397 -0.33425 -0.6859 0.24606 -0.29694 0.11926 -0.14902 -0.41722 0.35479 -0.07218 -0.50831 0.18749 1.2361 0.67663 0.5906 -0.032909 -0.064812 -0.4783 0.1546 -0.64978 -0.10044 -0.90575 0.31075 -0.20179 0.10154 -0.31753 0.42996 0.43995 0.28953 0.32326 0.20587 -0.46406 0.037071 -0.34519 -0.049488 -0.13602 -0.30854 -0.21865 -0.068353 1.0994 -0.25702 -0.22943 0.21495 0.065236 -0.10003 -0.5535 -0.35786 -0.0048699 0.35447 -0.32182
importance 0.25362 0.029082 0.23504 0.16502 0.41627 -0.52502 0.28591 0.80035 -1.1594 0.48918 -0.27227 -0.19886 -0.61518 0.15813 -0.10233 0.48848 0.17395 -0.48274 0.29588 -0.040945 0.033463 0.41059 0.49898 -0.30516 0.054561 -0.48772 0.62774 -0.15866 -0.44115 0.71324 0.076382 0.58906 0.20429 -0.41914 -0.37563 0.011565 0.028609 0.033855 -0.8091 -0.57706 -0.16724 0.42422 0.41436 -0.058481 -0.45787 -0.36609 -0.1861 0.44346 0.59259 0.33537 0.24166 -0.37016 -0.33233 0.22077 -0.22758 -0.48807 -0.58959 0.15902 -0.1031 0.25008 -0.36466 -0.43734 0.6543 0.18187 -0.47837 -0.2074 -0.12839 -0.060832 -0.085879 0.068549 0.75217 -0.095069 0.11546 -0.67558 0.27723 -0.1808 0.65666 0.45346 0.66051 0.019401 0.35586 -0.30342 -0.050136 0.2128 0.024695 -0.28505 0.010272 0.0098659 0.11674 0.42689 0.099918 0.24226 0.016543 0.41773 -0.02632 -0.16727 -0.12107 -0.27107 0.44258 -0.30878
inmate -0.23453 0.14158 0.97776 -0.68882 0.38182 0.13881 0.33989 0.072992 -0.16007 -0.84967 -0.47223 -0.14733 0.40105 -0.45426 -0.0016834 0.27731 0.56563 -0.099623 -0.76997 -0.23299 0.10738 -0.55687 0.081881 -0.16087 0.2995 -0.72308 0.63226 -0.25577 -0.048522 0.19071 -0.41821 0.216 -0.17021 -0.18233 -0.63815 0.1833 -0.31769 0.10006 -0.6681 -0.40403 -0.14984 0.25626 -0.10076 0.37624 0.039365 0.30459 0.1169 0.43661 1.0135 0.8582 -0.11352 -0.1373 -0.69331 -0.31451 -0.77832 -0.0029834 0.40687 -0.79348 -0.31415 -0.034067 -0.30594 0.25881 0.38129 0.47288 0.90789 -0.75125 0.23372 -0.25277 0.28081 0.46689 0.10082 0.094342 0.23362 0.36016 0.069497 -0.41348 0.37011 -0.18815 0.15846 0.20556 -0.10161 0.19899 -0.61836 0.58483 -0.10164 -0.49753 -0.21009 -0.15122 -0.43887 0.24522 -0.16378 -0.65504 0.72738 0.49972 0.54714 -0.40812 -0.53869 0.15895 -0.57272 0.11693
Harvard -0.09344 0.092764 -0.27102 0.35867 0.43777 -0.11912 0.50899 0.0019447 -0.63523 -0.50953 0.053928 -0.80624 0.28951 -0.040606 -0.13825 0.046773 -0.082237 0.0843 -0.24239 -0.4704 -0.26508 -0.12215 0.49655 0.29724 0.47255 -0.40147 0.88522 -0.45278 -0.48659 0.32674 -0.041052 -0.24566 -0.301 0.17654 -0.43959 -0.07357 0.44219 0.40065 -0.12755 -0.0059124 -0.045734 0.29834 0.14976 -0.031115 -0.44675 -0.53411 0.27737 -0.16848 1.1574 0.92548 0.47292 -0.68422 -0.25051 0.97741 -0.15927 -0.289 0.50864 -0.45742 0.43974 0.96664 -0.12379 -0.10536 0.91337 -0.030272 0.50768 -0.80845 0.13272 -0.32694 -0.56085 -0.35035 0.60775 0.20001 -0.22901 0.39239 -0.21751 -0.61183 0.22845 -0.44853 0.64711 0.2673 0.56483 0.071991 -0.45976 1.1543 0.063177 -0.28529 0.21704 -0.22077 -0.19678 0.47405 -0.47214 -0.29691 -0.064782 0.40065 0.44053 -0.78325 0.061624 0.58717 -0.35862 -0.18827
psychology -0.52808 -0.45512 -0.058323 0.34797 0.36191 -0.11315 0.50854 0.65056 -0.61995 -0.25006 -0.041087 -0.77294 0.08652 -0.46505 0.52196 -0.20159 0.02673 -0.65991 -0.17582 -0.29447 -0.23052 -0.03382 0.82522 -0.23762 0.085699 -0.041842 0.98605 -0.10191 -0.034658 0.27443 -0.40531 0.28781 0.25255 -0.025213 -0.70878 0.13623 0.43247 0.67578 -0.58075 -0.28866 -0.42883 0.17613 0.036082 0.027884 -0.18384 -0.35189 0.037071 0.64684 0.82791 0.87812 0.44476 -0.21174 -0.36486 0.84983 -0.034659 0.22905 0.40807 -0.5463 0.16636 0.15434 -0.19537 -0.069035 0.88111 -0.28431 0.3366 -0.66902 -0.0014611 -0.40011 -0.46642 -0.41473 0.82854 0.46058 0.22848 -0.17969 -0.35018 -0.5428 0.44979 -0.036408 0.67438 0.19207 0.12454 -0.32908 0.075374 0.74326 0.37998 -0.56192 -0.18515 0.33816 -0.092287 0.36225 -0.72414 -0.20945 0.5427 0.7082 -0.058973 -0.13668 0.025987 -0.019585 -0.52757 -0.77989
medal 0.29826 0.17736 0.60103 -1.0296 -0.41619 -0.4223 -0.048817 -0.03772 -0.31096 -0.13026 0.46858 -0.71286 -0.24696 -0.11945 0.51038 0.61066 0.30119 -0.008896 0.6231 -0.14885 0.48701 0.34742 1.4843 -0.62523 0.47223 -0.53286 0.46427 0.64999 -0.12454 0.031767 0.021173 -6.5063E-4 -0.4446 -0.19004 -0.44012 -0.19989 -0.71181 0.43175 -0.23325 -0.40375 -1.128 0.94053 0.47426 -0.38537 0.65083 -0.62193 0.24642 0.27472 1.8814 -0.15078 0.15173 -1.0993 -0.098966 -0.041928 -0.25766 -0.92946 0.28693 -0.41455 0.65306 0.18914 0.065518 -0.013384 0.59653 0.44786 0.28959 0.11311 -0.16363 0.38539 -0.075577 -0.38714 0.57661 0.23546 0.50767 -0.03722 -0.11571 0.86607 -0.22775 0.35598 0.97087 0.51955 0.40536 -0.13955 -0.61814 0.79209 -0.36375 0.38562 -1.1217 0.93399 -0.40456 0.91197 -0.30433 0.76617 0.51715 -0.015143 -0.0097107 -0.47426 -0.10762 0.45919 -0.55526 -0.41363
company 0.17194 -0.07909 0.29956 -0.16671 0.31219 0.14021 -0.44355 0.43784 -0.13287 0.67409 -0.64466 0.087776 -0.24366 -0.11139 -0.53882 0.5822 0.10833 -0.55894 -0.36338 -0.14619 0.64059 -0.0922 -0.33563 -0.033925 0.6074 -0.1424 0.58434 -0.21677 -0.2039 0.37412 0.53489 -0.14081 -0.661 -0.42683 0.10018 -0.16298 0.50507 0.23115 -0.40707 0.061885 -0.26511 0.4358 0.20261 0.10985 0.23093 -0.15813 -0.1542 0.025563 0.66434 0.58255 -0.10444 -0.29159 -0.34917 0.117 -0.25886 0.14433 0.014779 -0.16617 -0.0052078 0.26266 -0.045928 0.27339 0.94848 0.075013 0.50928 -0.37319 0.085065 -0.73371 0.21236 -0.39696 -0.025743 -0.39254 -0.056084 0.30453 0.31437 -0.0048991 0.21109 -0.20478 0.59696 0.096315 0.46245 -0.34902 -0.13093 -0.078211 0.40227 -0.4317 -0.13653 0.010651 -0.42537 0.57752 0.26615 -0.18156 -0.033243 -0.19034 0.45813 -0.24626 0.27389 0.25823 0.099108 -0.46696
live -0.06943 0.12985 0.51745 -0.37126 0.67781 0.23919 -0.46868 0.29295 -0.45681 -0.10794 -0.31328 0.046815 0.18665 -0.80257 0.016018 0.068861 0.19105 -0.51408 -0.1837 -0.11244 -0.27943 0.33666 0.09136 0.36823 0.49068 -0.13792 0.045766 -0.42832 -0.20787 0.39345 -0.3376 0.64101 -0.10566 -0.16058 -0.36275 -0.0022564 -0.2534 -0.035259 -0.4499 -0.16895 -1.0719 0.28039 0.32562 -0.18717 0.4652 -0.52252 0.33168 0.10016 0.089254 0.0036167 0.26703 -0.038081 -0.5525 0.072649 0.097583 0.21633 0.12865 -0.53139 0.073235 0.37652 -0.20807 0.026547 0.51896 0.28247 0.288 0.011112 -0.38459 -0.48089 0.39974 -0.52939 0.52973 -0.23881 -0.031177 -0.55767 0.065317 -0.107 0.57194 -0.13127 0.31423 0.64697 -0.032016 -0.20852 -0.80925 -0.011232 0.44116 -0.28108 0.25009 0.27823 -0.19095 0.095539 0.60448 0.4214 0.52801 0.13785 0.67103 0.19547 -0.34885 -0.34366 0.559 -0.39771
holy 0.71575 0.69609 0.3022 -0.47108 0.66305 -0.022836 0.4173 0.43587 -0.008959 0.032688 -0.21937 0.35917 0.27703 -0.18425 -0.34043 0.85887 0.54903 -0.096578 -0.39669 -0.23895 -0.58362 0.021712 0.11911 0.37214 0.14306 -0.48684 0.63712 -0.33528 -0.47769 0.30202 -0.67351 0.58923 -0.67646 -0.35044 -0.99968 0.15715 0.13413 -0.44266 -0.36797 -0.39623 -0.69898 0.58082 0.69555 -1.0703 -0.50191 -1.1831 -0.29403 0.70379 0.52209 0.055752 -0.12107 -0.42161 -0.14998 -0.13002 -0.27319 -0.086975 0.010026 -0.58407 0.47631 -0.68318 -0.77509 -0.34385 0.48195 0.029666 0.18458 -0.3176 -0.12558 -0.11365 -0.46813 -0.43201 0.57833 -0.48378 1.2484 -0.30966 0.73127 -0.21015 0.094779 0.74555 0.080872 1.0481 0.21501 0.12322 -0.24242 0.82154 0.36751 -0.40189 -0.38535 -0.62574 0.32177 0.34612 -0.18663 0.01009 0.37587 -0.76538 0.63779 -0.286 -0.31517 -0.063511 -0.029711 -0.46236
ticket 0.47162 0.17401 0.64039 -0.51364 -0.30504 0.49354 0.1408 -0.41564 -0.4979 0.71841 0.011065 0.30461 0.079744 -0.64462 -0.70679 0.64678 -0.32888 0.098838 0.27251 0.28477 0.23237 -0.21449 -0.20367 0.043491 0.33605 -0.44823 0.6294 0.26969 0.14328 0.59506 -0.21145 0.61505 -0.60389 -0.72077 -0.051644 -0.44601 -0.023427 0.27119 -0.95605 0.25637 -0.87585 0.42406 0.49947 -0.088137 0.16069 -1.0522 0.81512 0.12845 0.79876 -0.14158 0.058998 -1.0979 0.083742 0.30531 -0.32204 0.10813 -0.10187 -0.37887 -0.049689 0.58447 0.41581 -0.47682 0.57179 -0.1924 0.061303 -0.28651 0.15008 -0.33306 0.31205 0.15059 0.22492 0.25237 0.24813 0.67945 -0.039049 0.26317 0.059952 0.15279 0.48394 0.38931 0.17912 -0.19185 -0.4599 0.028232 -0.0082972 0.084952 -0.0038875 0.34205 -0.23106 -0.12767 0.58458 0.063057 0.54541 0.38839 -0.74156 0.35529 -0.51239 0.43993 0.23318 -0.61501
victory 0.2243 0.29243 1.446 -0.74059 -0.40482 -0.94301 0.2853 -0.35728 -0.38258 -0.27883 0.11658 -0.83855 -0.75987 0.0017189 0.30697 0.44537 0.16044 -0.031814 -0.035285 -0.44632 0.30051 0.45603 -0.055018 -0.76954 0.01233 -0.015089 0.35313 1.8708E-4 -0.61903 0.23332 -0.33263 0.1812 -0.52724 -0.281 -0.60574 0.24152 -0.3136 -0.26655 0.032403 -0.38401 -0.76351 0.23594 0.65746 0.39351 0.4631 -0.79274 0.14764 0.47704 0.72511 0.091733 -0.3359 -0.4322 0.44381 0.28416 -0.18336 -0.20817 0.27866 -0.51311 -0.065925 0.10829 0.21039 -0.18986 0.49623 0.18139 0.82023 0.37891 -0.24402 -0.021476 0.3842 0.52849 1.0204 -0.12608 -0.35956 -0.58688 -0.02114 -0.15483 0.27396 0.42165 1.0989 0.048269 0.16905 -0.11637 -0.65798 0.72702 0.064843 -0.014748 -0.19943 0.076612 -0.057253 0.82444 0.35388 -0.22338 0.1433 -0.058628 -0.29974 0.39851 -0.32786 0.57653 0.30961 -0.64022
football -0.043077 -0.17668 0.74123 -0.019586 -0.019447 0.12677 -0.32851 -0.14473 -0.11182 -0.3673 0.74161 0.16 -0.36243 -0.024806 -0.58179 0.40918 0.32919 -0.30559 0.032224 -0.2316 -0.11998 0.63432 0.61054 0.07888 -0.10398 -0.53393 0.64872 0.011639 -0.0060639 0.38433 -0.20145 0.50845 -0.37445 -0.62757 0.0074209 -0.022451 -0.2196 0.0085155 -1.212 0.027601 -0.78036 0.42031 -0.11578 0.099076 0.0088248 -0.66585 0.18187 0.78917 0.83146 0.43417 0.30921 0.074465 -0.062317 -0.013487 -0.1664 0.4338 0.45104 -0.84096 -0.29373 0.052943 -0.38462 -0.059596 0.97294 -0.37782 -0.095913 -0.073811 0.048798 -0.14214 -0.39738 -1.2431 0.67876 0.49478 -0.4454 -0.31547 0.015732 -0.04833 0.20664 0.66796 0.54386 0.39917 0.43765 0.011546 -0.45826 0.20652 0.30731 0.18935 -0.58158 -0.049622 0.0056936 -0.0032279 0.21379 -0.1521 0.55332 0.48849 0.056188 -0.013256 -0.078841 0.57834 -0.064994 -0.32378
seepage 0.10914 0.22653 0.39913 -0.29097 0.22909 0.49342 -0.0018582 0.59759 -0.36274 0.34006 -0.42401 0.36491 -0.21425 -0.40634 -0.36781 0.57798 0.19541 -0.33393 -0.39648 -0.43701 0.34093 -0.052979 0.0078623 0.011536 0.051106 -8.5424E-4 0.59259 0.092394 0.056777 0.19437 0.18451 0.41696 0.039139 0.053054 -0.70834 -0.22424 0.083815 0.022757 -0.019694 -0.094025 -0.11331 0.27271 0.2744 -0.27547 -0.13004 -0.29703 0.071444 0.45404 0.35438 0.29465 0.035251 -0.076609 -0.51067 0.049008 -0.36756 -0.022449 0.20341 -0.15535 0.16517 0.58547 0.017397 -0.016227 0.59507 -0.316 0.69047 -0.06922 0.037719 -0.3573 -0.15184 -0.13828 0.52701 -0.33768 0.34146 -0.040432 0.22172 -0.26605 0.42549 0.40534 0.53444 0.60874 0.10723 -0.34063 -0.18461 0.02663 -0.11688 -0.14936 -0.054821 0.13985 0.071282 0.1571 -0.20291 -0.118 0.31652 -0.043092 0.3207 -0.16222 0.22782 -0.10292 0.19613 0.040469
rook -0.48948 0.27204 0.59865 -0.17522 -0.024348 -0.039072 0.031918 0.36886 -0.22731 -0.048653 0.09546 0.28335 0.052307 -0.25831 0.2664 -0.19487 0.46998 -0.37558 0.10198 -0.282 -0.33775 0.29812 0.18581 -0.19582 -0.003046 -0.49166 0.4288 -0.0078798 0.028164 0.30182 0.14846 0.24338 -0.11785 0.036537 -0.46734 0.25477 0.012662 -0.021476 -0.73232 0.29288 -0.18522 0.47802 0.39528 0.27389 0.19263 -0.2786 -0.052838 0.84242 0.78982 0.27301 -0.12029 -0.4314 -0.34363 0.20359 0.19209 -0.0013384 0.12943 -0.52396 0.02872 0.76973 0.027389 -0.19438 0.22735 0.14422 0.73477 -0.0016717 0.56038 -0.35028 0.095412 -0.37491 0.50047 0.0071663 0.011687 0.15953 0.12771 -0.16018 0.2049 0.21943 0.73634 0.074437 0.3607 -0.18373 -0.45568 0.6907 0.15871 -0.11432 -0.068908 0.048567 0.25853 0.022388 0.20217 0.032664 0.7082 0.45145 0.31617 -0.074974 -0.67257 0.87024 0.29498 -0.31556
stroke -0.45365 0.12995 0.25521 -0.21535 -0.11639 -0.081385 -0.18436 0.81284 -1.2057 -0.13702 -0.24027 -1.1197 0.30423 -0.22452 0.18107 0.067186 0.65455 0.40956 -0.16408 -0.68286 0.3021 0.035758 0.0097074 -0.27693 0.31061 0.1029 0.42393 -0.12177 -0.49672 -0.24335 0.41294 0.77474 0.11656 -0.32699 -1.0029 -0.01026 -0.030086 -0.19783 0.12845 0.10125 -0.65284 0.45618 -0.26713 1.0738 0.21756 -0.75887 0.26629 -0.14384 0.43266 0.48074 0.077875 -0.84408 0.0026895 -0.1025 0.47468 -0.74537 0.02562 -0.65121 0.56694 0.31093 -0.55626 -0.0038621 1.1844 0.20199 0.96855 0.22419 0.27022 -0.24269 0.04844 0.24634 0.32459 0.36395 0.20541 0.012173 -0.72562 0.40579 0.74914 0.59983 0.47632 0.062541 0.12118 0.36061 -0.42999 0.46899 0.16308 -0.7851 -1.049 0.21107 -0.15726 0.64051 -0.011055 0.0029715 0.65102 0.37161 0.73832 -0.01125 -0.47171 0.4628 -0.083099 -0.1492
environment -0.44227 0.51197 0.45817 0.19322 0.57109 0.09585 -0.095056 0.27746 -0.18708 0.2081 -0.32724 -0.018499 -0.53251 -0.010599 0.28172 0.2302 -0.092587 -0.45668 -0.35023 -0.071373 0.83401 0.019992 -0.098567 0.23327 -0.088715 -0.11559 0.83846 -0.34326 -0.25945 0.47006 0.14971 0.95575 0.028882 -0.25564 0.018909 0.20947 0.32997 0.27738 -1.1126 -0.37736 -0.46305 0.33667 0.086553 0.030289 -0.019169 -0.19839 0.45654 0.56249 0.84013 -0.046705 0.14329 -0.36034 -0.67377 0.34091 -0.14223 0.3004 -0.35432 0.29996 0.45582 -0.033142 -0.1938 -0.22075 0.71769 -0.020962 0.2274 -0.44541 -0.099778 -0.50897 0.4789 -0.16234 0.3038 0.04248 -0.015032 -0.66266 -0.089854 -0.11961 0.46965 0.53958 0.68209 0.025857 0.08642 -0.21558 -0.12067 0.14264 0.29389 -0.044028 0.038357 0.7176 0.1461 0.15844 0.022965 0.37974 0.26005 -0.011667 0.48441 -0.41467 -0.090129 -0.55375 -0.10006 -0.51772
coffee 0.33188 -0.14587 0.37023 -0.17856 0.61413 0.19317 -0.11497 0.22049 -0.17507 0.58532 -0.010329 0.090357 0.13565 0.24527 0.16678 0.40939 0.29521 -0.09103 -0.19231 -0.0048498 0.4632 -0.53149 0.19202 -0.037216 0.20907 -0.60671 0.72906 0.21404 -0.25555 0.26336 0.55935 0.43029 -0.12401 -0.061691 -0.084483 -0.49497 -0.25006 0.131 -0.54361 -0.40421 -0.67219 0.3756 0.38148 -0.28587 -0.70777 -0.71038 0.17508 0.53404 0.98552 0.18201 0.062465 -0.27946 -0.34991 -0.59305 0.19027 0.22034 0.22905 -0.28212 0.4333 0.21469 -0.075816 -0.7384 0.81076 -0.46736 0.91783 -0.29003 0.41111 0.049692 0.0048207 -0.6393 0.11681 -0.81523 0.5321 0.19433 0.065406 -0.48781 -0.0050683 -0.21443 0.3204 0.45667 -0.15453 0.13996 -0.88552 -0.29021 0.40822 -0.24677 -0.098757 -0.13124 0.48191 0.33507 0.3201 -0.29194 0.54812 -0.086845 0.47057 0.32421 -0.32101 0.40357 0.32575 0.064744
baby -0.12619 -0.11147 0.39012 -0.30608 0.44518 0.54589 -0.075624 0.23258 -0.23896 0.89012 -0.36573 -0.094062 0.1144 -0.01088 -0.027786 0.21736 0.77244 -0.8567 -0.78431 0.095317 0.26869 -0.041807 0.64778 -0.33423 0.57762 -0.51519 0.4706 -0.19654 0.082827 0.6297 0.35243 0.075555 -0.3214 -0.16597 -0.46601 0.089367 -0.41025 0.72214 -0.16417 -0.20843 -0.71104 0.15232 0.51515 0.085187 -0.29525 0.28734 -0.1348 0.55162 1.0346 0.0086633 0.060473 -0.5359 -0.31958 -0.19886 0.0013415 0.033769 0.35853 -0.76459 0.28229 0.38172 0.023205 -0.667 0.40468 0.23971 0.95265 -0.28806 -0.083771 -0.37773 0.15927 -0.13097 -0.15971 0.70964 0.068294 -0.040068 -0.02444 0.12791 0.33009 0.28776 0.48263 0.59225 -0.32692 0.42118 -0.96275 -0.56068 -0.35578 -0.38451 -0.49657 -0.13842 0.039585 0.014341 -0.049951 0.45535 0.53848 0.059136 0.879 0.038732 -0.32194 -0.36752 -0.31017 0.045751
personnel -0.3784 0.25108 0.60687 -0.78331 0.47734 0.16525 0.31553 -0.082589 -0.45211 -0.33285 -0.4029 0.44405 0.04019 -0.65389 -0.036536 0.69874 0.30015 -0.9822 0.23022 0.16807 0.34987 0.18212 -0.26451 -0.11688 0.20239 -0.70382 0.68859 0.49324 -0.14333 0.40452 0.010285 0.33477 -0.33907 -0.76607 -0.47961 -0.34016 0.46938 0.073667 -1.1362 0.69597 -0.29484 0.31216 0.44377 0.25871 0.2878 0.11839 -0.095512 -0.0061364 0.35147 0.72843 0.12352 -0.43305 -0.32446 0.11731 -0.55688 -0.14723 0.62396 0.14065 -0.28394 0.25883 -0.40027 0.087257 0.26249 0.036245 0.048931 -0.772 0.34541 -0.21177 0.30279 -0.3103 0.53598 0.067863 0.33569 -0.52513 0.60963 0.06051 0.50139 0.061354 0.59417 -0.39023 0.12988 0.095505 0.16933 0.17532 -0.10437 -0.18719 -0.40545 0.65435 -0.15092 0.71037 0.20594 -0.17945 0.24441 0.086834 0.21588 -0.48451 -0.20056 0.27968 -0.081035 0.22867
family -0.081313 -0.20278 0.59735 -0.068151 0.47557 0.13951 -0.26976 0.38141 -0.48516 -0.15004 -0.28021 0.41742 0.11112 -0.28853 -0.4014 0.3151 0.20277 -0.58863 -0.35045 -0.022308 0.074081 -0.037085 0.04662 -0.13519 -0.36566 -0.6401 0.50419 -0.53779 0.42572 0.81855 0.042628 -0.078521 -0.082058 -0.17789 -0.3793 0.055292 0.22745 0.13285 -0.48438 -0.56442 -0.71747 0.13641 0.29908 -0.024702 0.39906 -0.2499 -0.47044 0.38388 0.59809 0.48838 0.16126 -0.66422 0.0029828 0.14276 -0.057529 0.020253 -0.053705 -0.50504 0.43324 0.10573 -0.037811 -0.52067 0.49332 -0.013574 0.38959 -0.2393 0.1948 -0.41854 0.10718 -0.021839 -0.061776 0.10468 0.3234 -0.16812 0.43937 -0.016746 0.32823 -0.11909 0.50875 0.42884 0.38528 0.094727 -0.69251 0.053462 0.2013 -0.28566 -0.12335 0.1521 -0.49354 0.0056079 0.38848 0.12884 0.60415 0.048452 0.85784 0.2422 0.0505 0.064695 -0.26834 -0.34053
hypertension -0.17785 -0.10613 -0.29819 -0.091709 0.52128 0.30415 -0.21698 0.59929 -0.9058 0.37893 -0.58951 -0.60798 0.28871 -0.62744 0.13713 0.3361 0.29547 0.038499 -0.56723 -0.095471 0.20215 -0.18864 0.25588 -0.88118 0.266 -0.47108 0.60944 -0.013754 -0.27341 0.16879 0.14829 0.76604 0.020273 -0.030383 -0.73468 -0.227 0.31205 0.49533 -0.12131 0.015037 -0.44319 0.18807 -0.14489 0.72051 -0.1522 -0.4506 0.43642 0.44487 0.50418 0.56309 0.62638 -0.2526 -0.28128 -0.035905 -0.085009 0.037125 0.21098 -0.62006 0.20737 0.23005 -0.79119 -0.45261 0.55144 0.056675 0.20075 -0.052787 0.29088 -0.60329 -0.48258 0.26034 0.82513 0.43079 0.2885 -0.32089 -0.31427 -0.43098 0.48028 0.38135 0.40952 0.12404 0.053966 0.23042 -0.42106 -0.14042 0.2618 -0.59364 -0.12781 0.37521 -0.07609 0.65297 -0.57283 -0.21308 0.11551 0.6923 0.50718 -0.38918 -0.33084 0.13272 -0.066996 0.087844
president 0.33136 -0.10473 0.47842 -0.30136 0.47141 0.2099 0.1907 -0.10006 -0.32402 -0.43219 -0.24863 -0.21998 -0.49102 -0.14643 -0.23622 0.4961 -0.10737 -0.022528 -0.22088 -0.17209 0.092643 0.010355 -0.56835 -0.19587 0.56064 -0.15152 0.60595 0.13964 -0.76268 0.25266 0.36456 0.025181 -0.30489 -0.86652 -0.049943 -0.10883 -0.046114 0.47885 -0.80381 -0.53223 -0.48469 0.14942 -0.20787 0.11548 -0.42012 -0.018467 0.14857 0.18185 0.3996 0.6911 0.82029 -0.56843 -0.20035 0.64988 -0.1314 -0.60305 0.27761 -0.12861 0.11733 0.49664 0.16843 0.23186 1.1382 0.62691 0.047559 -0.15182 0.39411 -0.0086114 -0.15444 -0.40967 -0.014339 0.024368 -0.028099 -0.59174 0.25224 -0.69097 -0.22133 -0.023009 0.97404 0.0024639 0.71374 0.23264 -0.39124 -0.37721 0.0030751 0.12645 -0.1482 -0.1466 -0.36965 0.12687 -0.062846 0.072903 0.43707 -0.35129 0.1441 0.092393 0.037113 0.84058 -0.16939 -0.53262
atmosphere -0.21169 0.27223 0.36711 -0.15666 0.55328 0.40901 -0.26564 0.13073 -0.14573 -0.090482 -0.41177 0.34637 -0.51512 0.047025 -0.52298 0.1129 0.4774 -0.12105 0.60623 -0.19975 0.94279 0.13119 0.021423 -0.3228 -0.54994 -0.26414 0.58293 -0.60751 -0.20245 0.31558 -0.17787 1.0105 -0.018548 0.15415 -0.14585 0.099955 0.42575 -0.41158 -0.68366 -0.24825 -0.3766 0.023531 -0.11186 -0.63182 -0.04008 -0.26412 0.88527 0.80934 0.65649 -0.20704 0.24101 -0.29371 -0.29211 0.13555 0.076267 0.35134 0.34664 0.16004 0.78716 -0.05804 -0.17495 -0.65613 0.67831 0.18127 0.37958 -0.55919 -0.29448 -0.49258 -0.010613 -0.41976 0.85619 -0.17984 -0.12405 -0.067082 -0.13367 0.17329 0.77055 0.84975 0.081805 0.50459 0.36129 -0.83955 -0.69791 0.024653 -0.073566 -0.021505 0.052906 0.47966 0.2681 0.36585 0.33079 0.015739 0.72656 0.49363 0.20712 -0.55937 -0.7769 -0.13703 0.263 -0.13077
practice -0.39481 0.54068 0.077265 -0.24971 0.38111 -0.2288 0.48378 0.20911 -0.45295 0.24081 -0.30493 -0.33535 0.027033 -0.12532 0.18471 0.53356 0.47964 -0.21612 -0.20801 -0.05916 0.089422 0.096339 0.41924 -0.19039 -0.14927 -0.65621 0.48123 0.1406 -0.012635 0.19259 0.059433 0.40168 0.079327 -0.46299 -0.31898 -0.1169 -0.15342 -0.061314 -0.79617 0.32096 -0.27244 0.40247 0.070231 0.36992 -0.22114 -0.76732 -0.08039 0.60122 0.26257 0.24323 0.1576 -0.094762 -0.21344 0.08258 0.17955 0.57285 -0.12239 -0.2553 -0.11947 0.47104 -0.16547 -0.29296 0.47803 0.54035 0.085159 -0.40081 -0.0316 -0.58964 0.026664 -0.54265 0.32491 0.063963 -0.21046 -0.3195 0.15027 -0.024415 0.5456 0.20848 0.54633 -0.038453 0.39398 -0.42912 -0.080808 0.87108 0.86714 -0.26418 -0.20467 -0.26932 0.1932 0.36909 -0.24208 -0.18009 0.14716 -0.14819 0.69189 0.14722 0.30666 0.71485 0.11075 -0.14149
movie 0.13862 -0.080882 0.34434 -0.047848 0.095189 0.4626 -0.084888 0.24244 -0.026385 0.64773 -0.55014 -0.035488 0.27006 -0.52081 -0.25227 -0.033213 0.049775 -0.3291 0.20205 -0.24096 0.29836 -0.17968 -0.44105 0.23843 -0.11657 -0.073233 0.35419 0.50693 0.61063 0.50619 -0.63341 0.45983 -0.29957 -0.20999 -0.16727 -0.32816 -0.61593 0.3095 -0.76337 -0.45719 -0.43134 0.59209 -0.051912 -0.067321 0.40716 0.21487 0.041559 0.48518 0.96927 0.66967 0.0066738 -0.42251 -0.42361 0.53661 0.025346 -0.23251 0.50908 -1.0745 0.39376 0.19829 -0.23319 -0.0050192 0.88183 0.19449 0.50641 -0.2747 -0.92852 -0.39096 -0.44259 -0.54612 0.17881 -0.29472 0.46264 0.50388 0.068602 -0.43996 -0.068131 0.52473 0.27832 0.34849 0.1513 -0.17104 -0.75709 0.41616 0.066534 -0.056648 -0.027366 0.14545 -0.49443 0.29281 0.10382 -0.03488 0.93234 -0.062254 -0.61276 -0.16906 -0.13265 -0.47589 -0.034375 -0.43036
popcorn 0.42425 0.015307 0.085848 -0.44069 0.21901 0.78089 -0.31752 0.19026 -0.06844 0.94365 -0.17527 0.14432 0.1858 -0.29792 -0.05473 -0.22555 0.07972 -0.13557 -0.014454 -0.044056 0.13201 -0.10431 -0.040154 -0.031292 0.03233 -0.54883 0.65132 0.10511 0.048306 0.2749 0.30599 0.67973 -0.25786 -0.080373 -0.43422 -0.64098 -0.59508 0.023576 -0.40605 -0.069145 -0.44323 0.40875 0.30007 -0.26005 -0.35461 -0.021789 0.24358 0.51457 1.1037 0.20341 -0.41844 -0.4072 -0.51717 -0.058991 0.096652 0.65188 0.13043 -0.603 0.30791 0.36517 -0.50961 -0.97417 0.6135 -0.02965 0.8117 0.022342 0.16662 -0.089305 -0.090165 -0.62951 0.5779 -0.38093 0.20187 0.084232 -0.10035 -0.43165 0.18386 0.078153 0.26205 0.43921 -0.20262 0.19298 -0.95136 -0.17314 0.15135 -0.23939 -0.0038777 -0.25413 0.35295 0.57919 0.40147 -0.064036 0.38109 0.043573 0.24011 -0.013777 -0.19272 -0.024228 0.18645 0.29807
recommendation 0.28392 0.55508 0.11746 -0.45225 0.51943 -0.11468 0.28064 -0.082888 -0.63025 0.56767 -0.99176 0.1276 -0.479 -0.37899 -0.24844 0.84954 -0.38022 -0.62858 -0.34774 -0.19262 0.41335 -0.2955 -0.10644 -0.14407 0.15345 -0.64259 1.2126 0.27771 0.003089 0.33737 0.35042 -0.34945 -0.014693 -0.27814 -0.496 0.44844 0.29928 -0.34435 -0.78566 -0.32964 -0.22068 0.40217 0.48607 0.70196 -0.055904 -0.087391 0.10077 0.34739 0.40663 -0.19396 0.17121 -0.47049 -0.16742 0.32697 0.20596 -0.2862 0.10254 -0.21029 0.1339 0.91769 -0.44672 0.18927 0.66746 0.30465 -0.44806 -0.40438 0.60606 -0.17136 -0.31805 -0.02508 0.084364 0.23255 0.23942 -0.10877 -0.30207 0.07416 0.12609 -0.024998 0.72218 0.32541 0.27264 -0.093582 0.25127 0.20816 0.11537 -0.15948 0.27616 -0.10064 0.26209 0.89757 -0.38064 -0.065755 0.20756 -2.8369E-5 0.12733 0.072379 -0.067113 0.043282 0.052633 0.16829
focus -0.0044523 0.25575 0.60201 0.13141 0.62378 0.22089 0.44445 0.45949 -0.65827 0.83387 -0.38166 0.071717 -0.21494 -0.1112 0.31147 0.80337 0.024017 -0.52257 -0.082081 -0.1182 0.077181 0.34655 -0.099844 -0.35012 0.13858 0.081628 0.41775 -0.067806 -0.17563 0.59129 -0.094768 0.44415 -0.039666 -0.31831 -0.31186 -0.16738 0.0094726 -0.056866 -0.83924 -0.40338 0.050838 0.33855 0.46288 0.19334 0.17861 -0.42513 -0.070252 0.52643 0.32653 0.40759 0.34859 0.026649 -0.1937 0.31285 0.0059009 -0.12436 -0.60519 -0.087886 0.14749 0.50382 -0.59416 -0.25281 0.81758 0.06821 -0.12487 -0.28821 0.27607 -0.28146 -0.23766 -0.13234 0.29766 -0.057624 -0.42411 -0.46448 0.33353 -0.24169 0.50002 0.02544 0.7175 -0.21818 0.33727 -0.55292 -0.2677 0.11752 -0.1326 -0.25263 0.047064 -0.071957 0.3382 0.32138 0.022733 0.34371 0.20804 0.46777 -0.0085912 -0.38042 0.1856 0.080462 0.11787 -0.337
attempt -0.35446 0.2563 0.86662 -0.47788 0.55187 -0.0052095 0.30336 -0.048189 -0.64777 0.39739 -0.41054 0.059731 -0.71693 -0.2478 -0.25933 0.57111 0.40399 -0.33384 0.25033 -0.25106 0.36064 -0.36018 -0.61846 0.11617 -0.30689 -0.47336 0.40625 -0.067575 -0.078119 0.24322 0.067381 0.29156 -0.17506 -0.4518 -0.31582 -0.0077145 0.18449 -0.060213 -0.0914 -0.31595 0.1085 0.76086 0.095215 0.22348 -0.41929 -0.19611 0.52786 0.3046 0.31177 0.18145 0.2677 -0.48125 -0.19694 -0.03096 0.14937 -0.11994 -0.47269 -0.92233 -0.36103 -0.36787 0.39307 -0.075297 0.4371 0.12726 0.6435 0.052543 -0.34258 -0.58503 -0.48851 0.055918 -0.011539 -0.015958 -0.44485 -0.11491 0.2274 0.39823 0.28944 0.82762 0.40996 0.45179 0.2344 0.17419 -0.057949 1.0813 0.0058353 -0.264 -0.16929 -0.082398 0.32976 0.27789 -0.27403 0.18784 0.40725 0.12332 0.046106 -0.037244 -0.59147 0.43012 -0.015699 -0.033648
approach -0.22479 0.057454 0.37361 -0.27939 0.30145 -0.06586 0.61147 0.40888 -0.55363 0.51508 -0.5517 -0.22167 -0.29368 -0.0018959 0.29732 0.55506 0.003228 -0.27417 -0.10185 -0.34266 0.18279 -0.33824 -0.62504 -0.12908 -0.35342 -0.16968 0.76277 -0.0037231 -0.072018 0.58862 0.15279 0.32011 -0.032272 -0.32374 0.032533 0.12895 0.044043 -0.28506 -0.69942 -0.29011 0.096206 0.33653 0.040115 0.52936 -0.33144 -0.57612 -0.038065 0.40984 0.58758 -0.046215 0.39599 -0.21307 0.1154 0.39613 0.21814 0.055511 -0.1396 0.018155 0.40259 0.2072 -0.11998 -0.23407 0.69822 0.05902 -0.28502 -0.43073 -0.20966 -0.55766 -0.092908 -0.26479 0.22317 0.4729 -0.12025 -0.13396 -2.6318E-4 0.14636 0.58973 0.4841 0.8456 0.10322 0.12436 -0.11141 -0.017952 0.44474 0.051242 -0.17547 -0.13869 -0.18539 0.37621 0.65752 -0.17979 -0.3016 0.28808 0.13094 0.127 -0.39389 -0.23978 0.091457 0.50631 -0.77656
number -0.19668 0.45855 0.51698 -0.10511 0.24983 0.16704 -0.019188 0.04044 -1.1036 0.11959 -0.04528 -0.005478 -0.20711 -0.26794 -0.060987 0.69277 0.53506 0.065599 -0.024956 0.093721 0.027056 0.45877 -0.18472 0.36781 0.098104 -0.63728 0.86376 -0.21432 0.23746 0.72873 0.032459 0.67179 -0.33128 -0.67121 -0.47874 -0.45319 0.13898 -0.23997 -0.33938 0.28217 -0.39246 0.42013 0.65565 0.60382 0.2521 0.15499 -0.31438 -0.36423 -0.062898 -0.30952 -0.034219 -0.020768 -0.23778 -5.8308E-4 -0.28492 -0.067319 0.19493 -0.14678 0.014858 0.39745 -0.45402 -0.35633 0.92143 0.33331 0.22774 -0.1848 0.1756 -0.40366 0.30893 0.21002 0.30474 -0.41443 0.31662 0.095163 -0.10662 0.19957 -0.011983 0.11387 0.27603 0.10963 0.02715 0.25503 -0.6282 0.644 -0.3576 -0.056981 -0.067445 -0.0070929 -0.26609 0.44012 0.085952 -0.07232 0.11757 0.76189 0.39357 -0.29683 0.056639 -0.11334 0.45334 -0.23969
property -0.49619 -0.035396 0.61532 -0.35835 0.017036 0.53352 -0.70693 0.063585 -0.42167 0.34363 -0.192 0.30375 -0.39034 -0.12279 -0.030007 0.5624 0.22868 -0.20817 -0.26467 -0.15302 0.34432 0.073875 0.1986 0.043894 -0.023038 0.38341 0.93449 0.21191 0.17942 0.37926 0.041667 0.8189 0.38924 -0.54662 -0.2685 0.11054 0.1149 0.30154 -0.60431 0.275 -0.20221 0.44863 0.43479 0.098192 0.44179 -0.58737 -0.023991 0.16457 0.5693 0.71245 -0.080231 -0.39231 -0.71644 0.074162 -0.021785 -0.31555 -0.67062 -0.40734 0.35171 0.26287 0.58476 0.02426 0.43984 -0.23579 0.14189 -0.81569 0.26998 -0.87395 0.27339 -0.19636 0.035062 -0.38518 0.33411 0.069001 0.7319 -0.51338 0.25782 -0.17126 -0.039777 0.72029 0.22465 0.12968 -0.3037 0.40124 0.40718 -0.37133 -0.087066 0.59885 -0.48047 -0.19034 0.33259 0.057063 0.026671 0.074294 0.33673 0.37282 -0.23884 -0.035568 -0.14978 -1.0523
fingerprint -0.060004 0.57033 0.44429 -0.67708 0.46722 0.77665 0.018439 0.6624 -1.2971 0.5742 -0.41434 -0.16121 -0.28812 -0.20071 -0.38 0.76719 0.12443 -0.47194 -0.090737 -0.031615 0.034837 0.011214 0.50838 0.47759 0.26902 -0.20457 0.76957 0.1956 -0.48057 0.61854 -0.55896 0.033199 0.018543 -0.2677 -1.0762 -0.30009 0.054295 0.17698 -0.2781 -0.29727 -0.27955 0.28222 0.14911 0.38445 0.0033174 -0.42268 0.072363 0.13609 0.36032 -0.093017 -0.31478 0.10137 -0.65297 0.18469 -0.40872 0.12023 0.18097 0.42108 -0.35196 0.49606 0.082077 0.13529 0.30361 0.28469 0.79368 -0.17502 0.19593 -0.45111 0.025731 -0.0072607 0.33092 -0.024455 0.1214 0.16418 0.17178 -0.015131 0.32949 -0.00668 0.67845 0.30847 -0.49873 0.0043093 -0.18678 0.61851 0.19179 -0.26272 -0.28073 -0.14566 0.26745 0.040092 -0.33707 -0.32392 0.35948 0.52232 0.24635 -0.38413 0.0010142 -0.016026 -0.3263 0.15108
reservation -0.10552 0.23378 0.67504 -0.059741 -0.17835 0.13799 0.096534 0.36061 -0.59013 0.081538 -0.32407 0.17716 -0.29205 -0.25535 -0.55971 0.43574 -0.21762 -0.27101 -0.14461 -0.010353 0.47577 0.01696 -0.11471 -0.090641 0.37477 -0.5572 0.49663 0.19993 -0.046787 0.43079 -0.029668 0.20889 -0.40412 -0.045517 -0.09621 -0.08563 -0.059321 0.089099 -0.71208 -0.083336 -0.03987 0.3783 0.9134 0.24452 0.029578 -0.24318 0.31763 0.14906 0.23164 0.50096 0.44248 -0.38784 -0.67116 0.11106 -0.25185 0.13525 -0.29491 -0.062446 0.64766 0.33325 0.016304 -0.20662 0.26364 0.084949 0.086853 -0.33088 0.2449 -0.82244 0.044234 -0.057288 0.8254 0.0029529 0.43277 -0.1474 0.16648 -0.10686 0.46295 0.31142 0.22229 0.41879 -0.013168 0.087503 -0.048047 0.31771 0.30552 -0.088557 0.059855 0.092269 -0.05118 0.020083 0.18691 -0.32194 0.16671 -0.044647 0.35813 0.43808 -0.54284 0.19476 0.46466 -0.035986
block 0.27905 0.68069 0.76717 -0.53968 0.048273 0.22063 0.1087 -0.20217 -0.54927 0.33451 -0.42657 -0.1556 -0.33664 -0.49752 -0.058412 0.64665 0.32868 -0.13997 0.23353 -0.27068 0.25029 -0.52043 -0.50694 -0.20409 -0.17698 -0.24877 0.24178 0.13871 -0.17872 0.64754 -0.13996 -0.041477 0.28402 0.19476 -0.51572 0.47302 -0.44275 0.46951 0.072729 0.08405 0.22008 0.59751 -0.14215 -0.26998 -0.05482 -0.38529 -0.10643 0.13615 0.23369 0.38904 0.3459 -0.081713 -0.4322 -0.5332 -0.20388 0.1359 -0.25507 -0.68846 0.16724 0.44759 0.11536 -0.056098 0.45139 0.24366 0.45149 -0.21131 0.49375 -0.2316 0.12009 -0.29256 0.16643 -0.26451 0.069372 0.14783 0.26801 -0.56926 0.39142 -0.021658 0.41874 0.28998 0.14619 0.5489 -0.62289 0.48808 0.35265 -0.27141 -0.44811 -0.10191 0.11998 0.16208 0.35002 0.057961 -0.024285 0.64178 0.36019 -0.54443 -0.37518 -0.099649 0.8852 -0.23532
fear -0.52765 0.51374 0.55166 -0.23707 0.49044 -0.11516 -0.028386 0.47331 -0.82804 0.53363 -0.56024 0.036781 -0.47499 -0.533 -0.47737 0.69913 0.22939 -0.25609 -0.059122 -0.30378 -0.3043 -0.017052 0.40151 -0.46104 -0.04183 -0.27131 0.8546 -0.30245 -0.26872 0.3586 -0.021497 0.66022 -0.28768 -0.42926 -0.29944 -0.06759 -0.03204 0.01606 -0.79779 0.39189 -0.52249 0.023182 0.14091 -0.39 -0.32274 -0.15168 0.34075 0.40124 -0.058337 0.48003 0.41728 -0.2784 -0.34112 0.013796 0.36448 -0.27957 -0.18353 -0.30259 -0.06714 -0.41372 0.037979 -0.47859 0.56362 -0.0092869 0.42869 -0.36141 -0.097265 -0.29968 -0.68199 0.36143 0.51428 0.38154 -0.013537 -0.33917 0.070208 -0.54116 0.41717 0.3342 -0.073835 0.26994 0.14054 -0.0013993 -0.91885 0.35072 0.11297 -0.13966 -0.029445 0.11391 0.28083 0.055712 -0.012941 0.055981 0.71705 0.12975 0.24243 -0.34424 0.10787 -0.49654 -0.084864 -0.35687
surface -0.21176 0.28287 0.1106 -0.82752 0.32734 0.79767 -0.4982 0.61836 -0.41543 0.098968 0.12587 0.37552 -0.20236 0.14815 -0.071562 0.52818 0.38087 -0.33055 0.15505 -0.80789 0.52451 0.32252 -0.038246 -0.37007 -0.082014 0.0041205 0.37644 0.28421 -0.12845 -0.18364 -0.13503 0.88567 -0.023641 -0.27308 -0.6321 0.066774 -0.21917 -0.081165 -0.34189 0.011843 0.11412 0.26557 0.41247 -0.39054 -0.10913 -0.27217 -0.036485 0.88103 0.53556 -0.038495 -0.22185 -0.062509 -0.38598 0.12483 -0.44915 0.099944 0.087334 0.033369 0.84223 0.49618 -0.16249 0.058508 0.47471 -0.023029 0.7325 0.13051 0.051637 -0.63707 -0.2133 -0.38875 0.88261 0.025623 0.020943 -0.0018542 -0.067758 0.27585 0.71842 0.67678 0.4273 0.44701 0.10754 -0.29227 0.014069 -0.1397 -0.24553 -0.18318 -0.083602 0.26013 0.52435 0.39066 0.10024 0.12808 0.47697 0.49204 0.79729 -0.70884 -0.36755 0.13344 0.54853 -0.017205
issue -0.030426 0.31551 0.67196 -0.046208 0.64244 0.071053 0.066505 0.19062 -0.91613 0.67631 -0.69151 -0.018187 -0.54282 -0.60708 -0.17714 0.56075 0.33076 -0.1123 -0.29574 0.11016 0.26818 0.35562 0.25276 0.094149 0.29676 -0.15457 0.68513 -0.2007 0.23032 -0.033663 -0.086556 0.41686 0.10593 -0.34267 -0.28895 -0.034063 -0.16318 -0.043244 -0.44496 -0.38521 0.37093 0.81335 0.25984 0.020699 -0.36062 -0.58932 -0.046292 0.37754 0.47752 0.2914 0.47013 -0.62374 -0.3845 0.16247 -0.30504 0.15377 -0.59136 0.21956 0.051892 0.27436 0.041206 0.10842 0.9247 0.2486 -0.13089 -0.091689 -0.17964 0.032789 -0.23539 -0.0077987 0.68423 0.43386 -0.10858 -0.027439 -0.117 -0.66463 0.18378 0.071128 0.77635 0.23949 0.43662 -0.012022 0.063137 0.16036 -0.38344 -0.45005 0.49101 -0.40731 0.0084798 0.38663 -0.0046455 0.18009 -0.048808 0.079355 0.14626 -0.16384 0.084305 0.27039 0.04736 -0.27649
